{"press_mean": "press_mean.f32", "press_std": "press_std.f32", "token_glance": {"pair": "token_glance_pair.f32", "pair_bias": [-0.006455], "state": "token_glance_state.f32", "state_bias": [0.000219], "goal": {"weight": [[-0.022794, 0.007968, 0.045771, 0.07019, 0.037591, 0.006837, -0.010712, 0.067143, -0.008403, 0.046399, 0.012867, -0.022366, -0.011562, -0.016305, 0.082761, 0.007764, -0.044033, 0.073141, -0.024599, 0.03883, -0.008215, 0.000527, 0.069418, 0.082266, -0.005312, -0.000707, 0.076136, 0.03372, -0.039586, 0.058783, -0.082244, -0.052443, -0.022376, 0.080891, 0.018959, 0.00297, 0.065294, -0.000918, 0.07317, 0.065485, 0.03169, 0.065887, -0.009217, 0.064086, 0.019823, 0.01269, 0.057448, 0.019575, -0.073436, 0.064788, 0.042369, -0.009964, 0.086632, 0.034555, 0.037741, 0.077173, 0.04867, -0.068109, 0.047365, 0.056203, 0.084536, -0.080971, -0.028206, 0.025122, 0.011985, -0.019834, 0.014635, 0.077038, 0.083211, -0.085005, 0.03811, 0.01724, 0.047586, -0.035201, -0.007217, -0.041969, -0.025535, 0.04009, -0.046101, 0.020916, 0.012707, 0.016058, 0.039316, -0.060402, 0.033818, 0.031342, -0.063721, 0.069161, 0.082941, 0.04113, 0.05046, -0.081546, -0.050518, -0.051272, 0.021834, 0.015413, 0.035303, -0.069667, -0.061274, -0.065431, 0.058636, 0.078777, -0.000155, 0.017677, -0.06167, 0.012934, -0.057817, -0.047671, -0.045602, 0.070989, 0.00083, -0.07234, -0.034694, 0.055646, 0.012377, 0.021762, 0.072429, 0.085705, -0.015258, -0.030154, 0.028836, 0.067173, -0.057217, 0.005071, 0.056172, 0.07487, 0.00249, 0.002179]], "bias": [-0.040055]}}, "attend": {"query": [-0.341906, 0.255373, 0.353509, 0.364082, 0.322323, 0.37622, -0.280002, -0.270871, -0.341637, 0.31316, 0.281765, 0.728054, 0.293168, -0.274138, -0.296973, -0.554593, -0.351846, 0.258553, -0.251655, 0.336515, -0.28539, 0.216411, -0.337311, -0.231079, -0.304744, -0.507243, 0.21842, 0.39915, 0.282544, -0.246054, 0.302311, -0.356014, -0.261425, -0.570475, -0.316561, 0.282164, -0.334041, -0.268935, -0.456126, 0.456386, -0.245426, 0.239865, -0.190648, 0.284778, -0.307208, -0.327989, 0.348654, -0.359066, -0.288571, 0.302225, -0.53074, -0.859884, 0.885163, -0.475251, 0.616736, -0.245463, -0.282715, 0.34815, 0.697689, 0.227376, -0.822864, 0.221666, 0.29916, 0.472884, 0.576837, -0.280545, -0.264887, -0.49337, -0.26958, -0.294854, -0.270713, 0.32178, 0.268716, 0.247719, 0.316154, 0.96878, -0.301423, -0.311163, -0.508494, -0.433487, 0.24153, 0.304174, 0.270072, -0.292228, 0.33226, 0.19863, 0.248577, -0.197725, -0.356031, -0.435955, 0.309707, 0.345475, -0.313462, 0.570436, 0.334926, 0.760356, -0.684134, -0.27252, 0.327187, -0.896279, 0.51886, -0.344453, -0.381503, 0.37453, 0.762488, 0.482776, 0.267447, 0.541734, -0.242026, -0.297233, -0.53, -0.304436, -0.279646, -0.30271, -0.232587, 0.405353, 0.279106, -0.401373, 0.290035, 0.36432, -0.304648, -0.312151, -0.297825, 0.276825, -0.586437, 0.731412, 0.23878, 0.449618], "key": {"weight": [[0.352925, -0.025678, 0.014762, 0.094031, 0.004755, -0.024858, -0.079521, -0.029457, -0.080436, -0.063988, 0.063866, -0.339486, 0.299485, -0.037168, 0.107792, -0.166156, -0.063927, 0.081837, -0.326384, 0.011334, -0.123969, -0.034108, 0.120674, 0.082218, 0.075857, -0.190009, 0.275226, -0.054313, -0.1824, 0.218123, 0.000923, 0.006131, -0.278629, 0.021961, -0.121816, -0.035523, -0.062268, 0.041578, 0.342728, 0.065624, -0.05104, -0.134685, 0.043593, -0.064323, 0.017405, 0.097622, 0.028972, 0.089272, -0.327752, 0.12252, 0.036272, 0.127587, 0.014458, 0.398883, -0.081215, -0.040743, 0.106798, -0.025454, 0.052344, -0.03596, 0.157773, 0.049967, -0.009114, -0.140123, -0.093296, 0.062325, -0.10456, -0.000276, 0.154391, -0.220293, -0.159942, 0.300194, -0.073084, 0.026961, -0.137899, 0.275087, 0.042367, -0.005193, -0.117798, -0.014425, 0.121352, 0.047458, 0.11357, 0.140071, 0.14215, -0.025925, -0.171784, -0.082509, 0.008315, 0.049904, -0.269842, 0.146437, 0.097606, 0.163095, 0.082909, -0.071251, 0.177553, -0.195744, -0.028936, 0.153088, -0.034308, 0.276046, 0.071763, 0.14485, 0.262982, 0.301634, -0.157467, -0.057118, 0.108804, -0.10066, 0.079298, 0.085835, -0.248114, -0.234379, 0.230555, -0.264056, -0.112838, -0.011463, 0.082406, -0.099905, 0.057427, -0.013072, -0.018917, -0.145501, 0.061113, -0.162337, 0.109709, -0.105788], [-0.336715, 0.153424, -0.03976, -0.059381, -0.04362, 0.027254, 0.118178, 0.032533, 0.039493, 0.025438, -0.033893, 0.328252, -0.136026, -0.109566, -0.110496, 0.045256, 7.1e-05, -0.159533, 0.296097, -0.029821, 0.116776, 0.013184, -0.146547, -0.104449, -0.129947, 0.243402, -0.368183, 0.062706, 0.260057, -0.32458, 0.03206, 0.0834, 0.193874, -0.005551, 0.099484, -0.020419, 0.077237, -0.006188, -0.389654, -0.025587, -0.06175, 0.02924, -0.038846, 0.038458, 0.03165, 0.062731, -0.039976, -0.145735, 0.298055, -0.161841, -0.150843, -0.22524, 0.019939, -0.30616, -0.034464, -0.02607, -0.0457, 0.112002, -0.08552, -0.010026, -0.182768, -0.013351, -0.097701, 0.198203, -0.000235, 0.096699, 0.176469, 0.095219, -0.034637, 0.091009, 0.149795, -0.257667, 0.161174, -0.04477, 0.140318, -0.151321, -0.030068, 0.066128, 0.064918, -0.081473, -0.047755, -0.072011, -0.21587, -0.081917, -0.133425, -0.028157, 0.241951, 0.121341, 0.070654, 0.050407, 0.26795, -0.097956, -0.238813, -0.022626, -0.171949, 0.034792, -0.083458, 0.316257, -0.078288, -0.064545, 0.128296, -0.305473, 0.023894, -0.07365, -0.202793, -0.341723, 0.20959, -0.045003, -0.135508, 0.078353, -0.016176, -0.050438, 0.248617, 0.148196, -0.130491, 0.136892, 0.164686, -0.014079, 0.025195, 0.130728, 0.083361, -0.080682, -0.011766, 0.047209, -0.019302, 0.040658, -0.005981, 0.010398], [-0.265865, 0.067271, 0.031589, -0.08523, -0.022463, 0.064647, 0.060614, 0.117339, 0.039089, 0.077026, -0.016184, 0.44472, -0.329285, -0.094542, -0.097575, 0.06801, 0.038293, -0.096503, 0.309575, -0.020222, 0.162129, -0.120113, -0.223095, -0.170975, -0.135849, 0.196321, -0.330436, 0.000855, 0.286328, -0.252234, 0.003975, 0.108307, 0.269543, -0.067244, 0.173729, 0.036363, 0.061328, -0.041164, -0.481589, 0.022321, 0.017016, 0.028511, -0.124982, 0.070838, -0.056131, -0.014595, 0.012187, -0.136926, 0.353971, -0.224721, -0.122241, -0.249181, 0.027379, -0.458162, -0.096686, -0.020064, -0.030978, 0.053457, -0.014046, -0.112014, -0.237142, -0.046437, -0.142529, 0.152483, 0.129249, -0.033912, 0.224081, -0.020876, -0.116973, 0.117399, 0.178349, -0.299453, 0.023498, -0.048964, 0.061162, -0.255931, 0.020466, -0.002417, 0.0489, -0.079746, -0.087084, -0.09524, -0.237354, -0.219514, -0.068182, -0.041442, 0.231972, 0.091506, 0.015491, -0.028989, 0.191693, -0.216311, -0.250945, -0.152759, -0.099543, 0.111826, -0.211401, 0.225067, -0.032902, -0.20188, 0.060747, -0.257209, -0.039675, -0.195726, -0.258227, -0.236117, 0.069764, 0.100021, -0.097489, 0.122883, 0.058742, -0.10279, 0.188936, 0.255171, -0.191932, 0.196242, 0.182844, 0.075519, -0.026351, 0.071139, 0.027544, 0.087478, 0.060428, 0.182374, -0.127321, 0.119108, -0.031639, 0.121327], [-0.376105, 0.013123, -0.066397, -0.11276, -0.05835, 0.023871, 0.093618, 0.13926, -0.040245, -0.042887, 0.051436, 0.412974, -0.279911, -0.004117, -0.040552, 0.086487, 0.007363, -0.139763, 0.439422, 0.001397, 0.179384, -0.107892, -0.22575, -0.086431, -0.141822, 0.300357, -0.386241, -0.02864, 0.248945, -0.199219, 0.054316, 0.004756, 0.30726, 0.050305, 0.207128, 0.000266, -0.039191, -0.021422, -0.371861, 0.073003, 0.047381, 0.028728, -0.13145, 0.091149, -0.016355, -0.069274, -0.058282, -0.18131, 0.271947, -0.125004, -0.076968, -0.275085, 0.076088, -0.305063, -0.029914, -0.009159, -0.067795, 0.072313, 0.007911, -0.049025, -0.147264, -0.083483, -0.030451, 0.180786, -0.061586, 0.069124, 0.258505, 0.029124, -0.09407, 0.093331, 0.039093, -0.131586, 0.038973, -0.048506, 0.215594, -0.299293, 0.043917, -0.09658, 0.068493, 0.008962, -0.099231, -0.113894, -0.114612, -0.103359, -0.077656, -0.124224, 0.212168, 0.065882, 0.010389, 0.035072, 0.281038, -0.174952, -0.212481, -0.059022, -0.101559, 0.039029, -0.096292, 0.278662, 0.010504, -0.219408, 0.152764, -0.213756, -0.079624, -0.122929, -0.199657, -0.218515, 0.111675, 0.003468, -0.071324, 0.104107, 0.089332, 0.024899, 0.251291, 0.164336, -0.247579, 0.248282, 0.119424, 0.096579, 0.023981, 0.027193, 0.05192, 0.058245, 0.103582, 0.017028, -0.067758, 0.085117, -0.178186, 0.046892], [-0.380939, 0.069185, -0.085577, -0.080009, -0.071746, -0.031044, 0.08558, 0.052072, -0.042452, -0.040934, 0.022533, 0.391696, -0.194305, -0.106393, -0.024865, 0.203839, 0.031321, -0.106924, 0.298003, 0.020056, 0.297676, -0.049775, -0.170955, -0.05692, 0.020587, 0.247725, -0.354234, -0.034691, 0.255602, -0.248503, -0.009031, 0.128635, 0.205992, 0.051874, 0.149096, 0.056807, -0.052052, -0.010786, -0.37009, -0.075957, -0.066541, 0.119595, -0.171893, -0.076276, -0.051123, -0.042501, -0.014868, -0.098936, 0.323538, -0.183081, -0.077834, -0.310453, 0.069568, -0.30778, -0.069614, -0.036419, -0.15233, 0.093331, -0.147308, 0.037245, -0.156595, 0.047835, -0.092859, 0.202988, 0.040335, 0.041595, 0.133498, 0.014283, -0.051371, 0.244097, 0.080806, -0.237956, 0.084579, -0.029263, 0.109199, -0.272114, 0.041885, -0.011243, -0.023838, 0.034403, -0.127338, 0.051715, -0.254811, -0.146397, -0.13247, -0.086578, 0.198242, -0.010139, -0.023352, -0.03542, 0.321752, -0.143426, -0.240873, -0.096232, -0.191581, 0.077671, -0.214269, 0.235805, -0.006721, -0.1734, 0.162393, -0.32949, -0.071279, -0.115162, -0.248945, -0.361012, 0.180784, 0.056447, -0.024135, 0.05449, 0.065914, -0.013074, 0.27901, 0.198661, -0.142723, 0.220486, 0.210625, -0.023833, -0.085684, 0.117624, 0.097896, 0.045196, 0.024448, 0.098568, -0.066406, 0.216397, -0.12394, 0.112891], [-0.277535, 0.050449, 0.035404, -0.075601, -0.020763, -0.007733, 0.038139, 0.085791, -0.050714, 0.061632, -0.107326, 0.353231, -0.151896, 0.025071, -0.080398, 0.040839, -0.047278, -0.058352, 0.429857, -0.091353, 0.099473, -0.096408, -0.177352, -0.100009, 0.012982, 0.296833, -0.406903, 0.044126, 0.165837, -0.339193, 0.003718, 0.143225, 0.164208, 0.054282, 0.074104, -0.040795, 0.0306, -0.044255, -0.457096, -0.036038, -0.019353, 0.110904, -0.129807, 0.044578, -0.080761, 0.054037, 0.014854, -0.126227, 0.328891, -0.13998, -0.01591, -0.156534, 0.092191, -0.422644, -0.032537, 0.057578, -0.137232, -0.0181, -0.137901, -0.07716, -0.243561, 0.037499, -0.157835, 0.173459, -0.011263, 0.003908, 0.125575, 0.111534, -0.079883, 0.167883, 0.09599, -0.133822, 0.19611, -0.087762, 0.191542, -0.310808, -0.061195, -0.020394, 0.106978, -0.057614, -0.130562, -0.088326, -0.094408, -0.199393, -0.035574, -0.058932, 0.166134, 0.01836, 0.031746, -0.059777, 0.271841, -0.173562, -0.181559, -0.069663, -0.0655, 0.067952, -0.068765, 0.265719, -0.10443, -0.182485, 0.112507, -0.27648, -0.053264, -0.092383, -0.254421, -0.327295, 0.22021, 0.090821, -0.133137, -0.011838, 0.008981, 0.049114, 0.239433, 0.109511, -0.236406, 0.191575, 0.105405, 0.007621, -0.121399, 0.038264, 0.086371, -0.021819, 0.022828, 0.076207, -0.080863, 0.066995, -0.107578, 0.029938], [0.17782, -0.065682, 0.060392, 0.011097, 0.005112, -0.066911, -0.067681, -0.134463, -0.056948, -0.02777, 0.018928, -0.257508, 0.266324, 0.086866, 0.017644, -0.019438, -0.000988, 0.103323, -0.311206, 0.036576, -0.126558, -0.008173, 0.212441, 0.167997, 0.121612, -0.149949, 0.355813, -0.055461, -0.097672, 0.258184, -0.046179, -0.087541, -0.118105, -0.103583, -0.099586, -0.06543, -0.063735, 0.093243, 0.27843, -0.062623, 0.000666, -0.023593, 0.106056, 0.040201, 0.027914, 0.034571, -0.012916, 0.116433, -0.308703, 0.100259, 0.076509, 0.117133, -0.035854, 0.371678, -0.087513, -0.070521, 0.100729, -0.056358, 0.005405, 0.09604, 0.234275, 0.07824, 0.103768, -0.122792, -0.086913, -0.026997, -0.079607, -0.035849, 0.036519, -0.185508, -0.03508, 0.213144, -0.16142, -0.029271, -0.183374, 0.300005, 0.022375, -0.055965, -0.003715, 0.069878, 0.153631, -0.035829, 0.224142, 0.058378, 0.022631, 0.070798, -0.26943, -0.120025, 0.038866, 0.045516, -0.18357, 0.064957, 0.230851, 0.030757, 0.06458, -0.111704, 0.089771, -0.171475, 0.045648, 0.050814, -0.102266, 0.140859, 0.056783, 0.084217, 0.212099, 0.285952, -0.107742, -0.094736, 0.12176, -0.064103, 0.053207, -0.045927, -0.230876, -0.130928, 0.073063, -0.116414, -0.218433, -0.012007, 0.099867, 0.000279, -0.028891, -0.050649, -0.062602, -0.017248, 0.124512, -0.0628, 0.044791, -0.061219], [0.305351, -0.112819, 0.0689, 0.07635, -0.007849, 0.06019, -0.124175, -0.049823, 0.048035, -0.050423, 0.045384, -0.367201, 0.201875, 0.090003, 0.107076, -0.1703, -0.049563, 0.041696, -0.344496, 0.093746, -0.232217, 0.084806, 0.091485, 0.035502, 0.114979, -0.204605, 0.380168, -0.020646, -0.280767, 0.315433, 0.020698, -0.141671, -0.255114, 0.0662, -0.081355, -0.024972, 0.033472, 0.125014, 0.358005, -0.052844, 0.056411, -0.190162, 0.054034, -0.019476, -0.014937, 0.083713, 0.017621, 0.175453, -0.293813, 0.187058, 0.129986, 0.232189, 0.006459, 0.377723, -0.010558, -0.011626, 0.088317, -0.105352, 0.025402, -0.038731, 0.17511, -0.016592, 0.132727, -0.185114, -0.144429, 0.03493, -0.201881, -0.021686, 0.140332, -0.071144, -0.065845, 0.276172, -0.091293, -0.013619, -0.077041, 0.270593, 0.062946, -0.113555, -0.079462, -0.031227, 0.182505, -0.048491, 0.173674, 0.12906, 0.10346, 0.080548, -0.224332, -0.099558, 0.024928, 0.017696, -0.187001, 0.082974, 0.212508, 0.040063, 0.132323, -0.027111, 0.193806, -0.295447, 0.074083, 0.228748, -0.168773, 0.23063, 0.080845, 0.124642, 0.283661, 0.329087, -0.106172, -0.071738, 0.16723, -0.048718, -0.033666, -0.044898, -0.309814, -0.254807, 0.143404, -0.153186, -0.172736, -0.028581, -0.002014, -0.104002, 0.011791, 0.033193, -0.012441, -0.081982, 0.05032, -0.040696, 0.135998, -0.113437], [0.234211, -0.024593, 0.088735, 0.093126, 0.094073, -0.037272, -0.076239, -0.16021, -0.054372, -0.0975, -0.055979, -0.444591, 0.162532, -0.010533, 0.062055, -0.076128, 0.082734, 0.024882, -0.340818, 0.032799, -0.116873, 0.001803, 0.178148, 0.167979, 0.020043, -0.307355, 0.28472, -0.069583, -0.206119, 0.219612, 0.02321, -0.008396, -0.185771, 0.044798, -0.082607, -0.107726, -0.004691, 0.078182, 0.398927, 0.068946, 0.000869, -0.032133, 0.047082, 0.059728, -0.007397, -0.065626, -0.037016, 0.072986, -0.266044, 0.114962, 0.178405, 0.296177, -0.082829, 0.401055, -0.085416, -0.038956, 0.088225, -0.066509, 0.023229, 0.000394, 0.131134, 0.017353, 0.035744, -0.244294, -0.107585, 0.011131, -0.213002, -0.03931, 0.108568, -0.214443, -0.091552, 0.140044, -0.082596, 0.059731, -0.127861, 0.274775, 0.098686, -0.028852, -0.069141, -0.036236, 0.126764, 0.067645, 0.22445, 0.188666, 0.049763, 0.084821, -0.189306, -0.01139, -0.043397, 0.019559, -0.252094, 0.12909, 0.154732, 0.172806, 0.128916, -0.061198, 0.101078, -0.288596, 0.022854, 0.19412, -0.041199, 0.319549, 0.048927, 0.163799, 0.218387, 0.291669, -0.083325, -0.043334, 0.14438, -0.053994, 0.028731, -0.031151, -0.218915, -0.268506, 0.178238, -0.157202, -0.179165, -0.091619, -0.023228, 0.001922, -0.076333, -0.051024, -0.089104, -0.117688, 0.010772, -0.140758, 0.067535, -0.08929], [-0.240133, -0.001113, 0.063625, -0.117534, -0.015284, -0.02659, 0.018236, 0.097704, -0.00825, 0.12734, 0.035652, 0.335891, -0.249567, -0.057457, -0.074337, 0.189685, -0.03244, -0.045305, 0.284622, -0.100039, 0.218605, 0.039058, -0.22512, -0.039335, -0.00064, 0.292828, -0.312682, 0.044465, 0.248869, -0.33865, 0.109321, 0.121384, 0.171203, -0.036821, 0.066968, 0.089566, 0.039216, 0.015158, -0.493613, 0.007353, -0.031845, 0.120306, -0.027941, 0.086195, -0.035292, -0.083011, 0.05302, -0.210545, 0.418676, -0.166578, -0.158358, -0.295455, -0.002042, -0.412038, -0.095611, -0.002986, -0.154565, 0.029443, -0.143767, -0.105345, -0.173275, -0.027174, -0.032033, 0.271688, 0.019226, 0.045126, 0.122785, 0.063488, -0.109172, 0.147724, 0.085038, -0.282913, 0.060349, -0.051564, 0.067904, -0.316556, -0.063327, -0.043062, 0.058441, 0.011643, -0.234421, -0.09257, -0.243029, -0.23103, 0.001416, 0.037127, 0.229635, 0.110219, 0.090066, -0.035111, 0.192, -0.205963, -0.124328, -0.101383, -0.17876, 0.063982, -0.081033, 0.234792, -0.116786, -0.129553, 0.096041, -0.297414, -0.072679, -0.084145, -0.259385, -0.26093, 0.06627, 0.003628, -0.030983, -0.013482, -0.066776, -0.037511, 0.300339, 0.202478, -0.119078, 0.176879, 0.134362, -0.062587, -0.034051, 0.141509, -0.038198, 0.024675, 0.042423, 0.212864, -0.113919, 0.13005, -0.076805, 0.147333], [-0.322609, 0.046413, 0.030402, -0.132676, 0.022255, 0.021964, 0.113861, 0.165455, 0.046395, 0.068153, -0.046589, 0.413326, -0.221882, -0.121868, -0.033033, 0.051473, -0.071192, -0.159586, 0.406774, -0.110935, 0.166011, -0.093851, -0.084345, -0.119584, -0.01008, 0.186309, -0.327474, 0.018127, 0.196273, -0.342338, 0.021812, 0.08245, 0.241477, 0.101636, 0.185103, 0.008146, -0.009454, -7.4e-05, -0.33636, -0.043682, 0.005177, 0.058786, -0.000947, 0.075219, -0.039013, -0.020054, 0.053575, -0.106001, 0.345402, -0.254676, -0.146474, -0.247792, -0.02896, -0.438527, 0.036424, -0.079024, -0.183496, 0.093938, -0.069206, -0.017444, -0.116311, -0.003795, -0.05902, 0.223723, 0.015251, 0.06911, 0.212674, 0.064056, -0.165031, 0.075355, 0.103854, -0.198957, 0.108257, -0.091367, 0.162463, -0.302481, -0.063762, 0.018259, 0.029962, -0.063048, -0.102397, -0.109465, -0.179928, -0.100394, 0.006141, 0.019312, 0.256937, 0.005457, 0.102317, -0.024916, 0.250174, -0.130174, -0.22632, -0.066935, -0.115455, 0.004652, -0.117637, 0.326589, -0.080116, -0.064183, 0.145387, -0.162912, -0.079936, -0.208061, -0.263157, -0.37872, 0.147402, 0.057794, -0.094578, 0.073395, -0.046722, -0.076454, 0.286079, 0.105053, -0.253059, 0.155962, 0.167549, -0.016285, 0.016609, 0.066187, 0.086182, -0.06049, -0.003455, 0.114985, -0.093814, 0.038397, -0.142392, 0.158251], [-0.264094, 0.038718, -0.05737, 0.034635, -0.168532, -0.00372, 0.038839, 0.133647, 0.079596, 0.094057, -0.04843, 0.416525, -0.245487, -0.106037, -0.046218, 0.114541, -0.077266, -0.03252, 0.437519, 0.031725, 0.14423, 0.010762, -0.251262, -0.070752, -0.106492, 0.359212, -0.369901, 0.038019, 0.154515, -0.338444, -0.044401, 0.099987, 0.242959, -0.030319, 0.15109, 0.054709, -0.043066, -0.125512, -0.468437, 0.041057, -0.118592, 0.10093, -0.138384, -0.044717, -0.050734, -0.079251, 0.019992, -0.088753, 0.388441, -0.292919, -0.143686, -0.200492, -0.025906, -0.371197, 0.117836, -0.133426, -0.148685, 0.147801, -0.029968, -0.131843, -0.079635, 0.033642, -0.189017, 0.256537, -0.045531, 0.040065, 0.13386, 0.053002, -0.085534, 0.15434, 0.068708, -0.152292, 0.184966, -0.097488, 0.138313, -0.355905, -0.150968, -0.198985, 0.075718, 0.006907, -0.263865, -0.056834, -0.169042, -0.261234, -0.157282, -0.045268, 0.238569, 0.028832, 0.081271, 0.027857, 0.355475, -0.14408, -0.126991, -0.146539, -0.075271, 0.132027, -0.119247, 0.274299, -0.01208, -0.151175, 0.113989, -0.311801, 0.044091, -0.18648, -0.286285, -0.300538, 0.172192, 0.023915, -0.171811, -0.03, -0.050781, 0.013561, 0.260071, 0.187874, -0.126235, 0.238043, 0.139067, -0.041933, -0.071652, 0.144423, 0.080864, -0.013605, 0.019513, 0.058548, -0.075008, 0.196547, -0.089423, 0.193345], [-0.289797, 0.112636, 0.075706, -0.054593, -0.11596, 0.018472, 0.052687, 0.084011, 0.022787, -0.019375, 0.005986, 0.350278, -0.240075, -0.120972, 0.04176, 0.086314, 0.065221, -0.15491, 0.270956, -0.047662, 0.150885, -0.100458, -0.172531, -0.112474, -0.132152, 0.337871, -0.354991, -0.059442, 0.23761, -0.242351, 0.010123, 0.067003, 0.144204, -0.044295, 0.194669, -0.005534, 0.029196, -0.060565, -0.408412, -0.019877, -0.011025, 0.191936, -0.145463, -0.05342, -0.049935, 0.014167, -0.03936, -0.132984, 0.360668, -0.234599, -0.174478, -0.236236, 0.071452, -0.36555, 0.023536, -0.066076, -0.08881, 0.118046, -0.025566, 0.040512, -0.207105, -0.002878, -0.058738, 0.14445, 0.063733, -0.022518, 0.224553, 0.103613, -0.103115, 0.217686, 0.077928, -0.232196, 0.111467, -0.026428, 0.091216, -0.269974, -0.034208, -0.004514, 0.103075, 0.038761, -0.098519, -0.005778, -0.09989, -0.221625, -0.11888, -0.117897, 0.248609, 0.031459, -0.031089, 0.005826, 0.240287, -0.128364, -0.24064, -0.022937, -0.126404, 0.018653, -0.060145, 0.291596, -0.089172, -0.202345, 0.012864, -0.223434, 0.036756, -0.140282, -0.266868, -0.21762, 0.123708, -0.047812, -0.135658, 0.071353, 0.059494, 0.024062, 0.299892, 0.100925, -0.118692, 0.153524, 0.166793, 0.008681, 0.031032, 0.09911, 0.027387, 0.044014, 0.146704, 0.064609, -0.124179, 0.03958, -0.144389, 0.145782], [0.315248, -0.074727, -0.049264, 0.013745, 0.099277, 0.064994, -0.067633, -0.158924, -0.070041, 0.026485, -0.010223, -0.359126, 0.28251, 0.04393, 0.010922, -0.034368, 0.065804, 0.08268, -0.390224, 0.001173, -0.185414, 0.035887, 0.181634, 0.096278, 0.077337, -0.320185, 0.355226, -0.022564, -0.212292, 0.271276, -0.040866, -0.061609, -0.259388, -0.004316, -0.177828, -0.024945, -0.028818, 0.091867, 0.351025, 0.081133, -0.007162, -0.167237, 0.063451, -0.068628, 0.088868, 0.045713, -0.056688, 0.073793, -0.415171, 0.187492, 0.031507, 0.265445, -0.096733, 0.318193, -0.032163, 0.028035, 0.122476, 0.008094, 0.088229, 0.030473, 0.103696, -0.000271, 0.006297, -0.260816, -0.04361, -0.049237, -0.216164, -0.093564, 0.16227, -0.122974, -0.176832, 0.301653, -0.102083, 0.032572, -0.192582, 0.238407, 0.048502, 0.030249, 0.027142, -0.013079, 0.176419, -0.028505, 0.196702, 0.128665, 0.068857, -0.013304, -0.239798, -0.073384, 0.018315, -0.011768, -0.213559, 0.082552, 0.216563, 0.132321, 0.080707, -0.034195, 0.162162, -0.242257, 0.028011, 0.134314, -0.062102, 0.312896, -0.038711, 0.076915, 0.265336, 0.312733, -0.136665, -0.039148, 0.001288, -0.029153, 0.078002, -0.03877, -0.212425, -0.217752, 0.152602, -0.145527, -0.104093, 0.061067, -0.018639, -0.029555, -0.064323, 0.0311, -0.127679, -0.084556, 0.115399, -0.112408, 0.085246, -0.101622], [0.3098, -0.020373, 0.061094, -0.017086, 0.120257, 0.052261, -0.133943, -0.034153, 0.016838, -0.127819, -0.038427, -0.388154, 0.276262, 0.114939, -0.027617, -0.097906, -0.083175, 0.017244, -0.361761, -0.004109, -0.21951, -0.002467, 0.191003, 0.157702, 0.000377, -0.281375, 0.368098, -0.091988, -0.241052, 0.215964, 0.057163, -0.019928, -0.128437, 0.005949, -0.064354, 0.001369, -0.032797, -0.006383, 0.295421, 0.023701, 0.019863, -0.183286, 0.0497, -0.087071, 0.080147, 0.080714, 0.017419, 0.07621, -0.295018, 0.140187, 0.039166, 0.21736, 0.042264, 0.299972, -0.044923, 0.025779, 0.017299, 0.029759, 0.124282, 0.089728, 0.156949, 0.106082, 0.080688, -0.194251, -0.079269, -0.087698, -0.091823, 0.020086, 0.132625, -0.171682, -0.015867, 0.224761, -0.158455, 0.045314, -0.079125, 0.274615, 0.021658, -0.042852, -0.014394, 0.005203, 0.116222, 0.045864, 0.172745, 0.147148, 0.03069, 0.069582, -0.187233, -0.030584, 0.048407, 0.009518, -0.14052, 0.132334, 0.124659, 0.079271, 0.021262, -0.029887, 0.193866, -0.222042, -0.01319, 0.07095, -0.02673, 0.263647, 0.025658, 0.125001, 0.207802, 0.335607, -0.143484, -0.103613, 0.135427, -0.001134, -0.024412, 0.061306, -0.230987, -0.20017, 0.158962, -0.220193, -0.08486, -0.026424, -0.019866, -0.141729, -0.042937, -0.086583, 0.016408, -0.043106, 0.050999, -0.11331, 0.012323, -0.068443], [0.26839, 0.042874, 0.066855, 0.093407, 0.108969, -0.059204, -0.188685, -0.028919, -0.025675, 0.007249, -0.055194, -0.444976, 0.276616, -0.053434, 0.032428, -0.051852, -0.048518, -0.001576, -0.468322, 0.017065, -0.279853, 0.123586, 0.166313, -0.015344, 0.069585, -0.233438, 0.295168, 0.006285, -0.234686, 0.262787, -0.015643, 0.002191, -0.187733, 0.006639, -0.213712, 0.032364, -0.059181, 0.066403, 0.465103, 0.058773, 0.073401, -0.141956, 0.156974, -0.000426, 0.044995, -0.049812, 0.069667, 0.157888, -0.365261, 0.157177, 0.100281, 0.160472, 0.009549, 0.423197, -0.025506, 0.018773, 0.099921, 0.002952, 0.035393, 0.027099, 0.206027, -0.044806, 0.168769, -0.122771, 0.015649, 0.04887, -0.191865, 0.017776, 0.073073, -0.203113, -0.090292, 0.268918, -0.185177, 0.092147, -0.142774, 0.204596, 0.091941, 0.054992, -0.044332, 0.075224, 0.19856, 0.094588, 0.235115, 0.183606, 0.036153, 0.066393, -0.248988, -0.116573, -0.07562, -0.085277, -0.205833, 0.209822, 0.12525, 0.233351, 0.12429, -0.075684, 0.075443, -0.32084, -0.003337, 0.208164, -0.016234, 0.308111, 0.029059, 0.217601, 0.199585, 0.374173, -0.166814, -0.132829, 0.107628, -0.013105, -0.040431, -0.042565, -0.277148, -0.276734, 0.10288, -0.284186, -0.139254, -0.048273, 0.038776, -0.092799, 0.008822, 0.101165, -0.108626, -0.198284, 0.08674, -0.19568, 0.083295, -0.059206], [0.308789, -0.162911, 0.061649, 0.012814, -0.004672, -0.067698, -0.002055, -0.166327, 0.018178, -0.119216, 0.052293, -0.405787, 0.213629, 0.031728, -0.013964, -0.133095, 0.074629, 0.137074, -0.316158, 0.0927, -0.156803, 0.017448, 0.070747, 0.055849, 0.02508, -0.303201, 0.280784, -0.091755, -0.171626, 0.293004, -0.073268, -0.103134, -0.222088, -0.029958, -0.10494, -0.000892, -0.062071, 0.068311, 0.424564, -0.029486, 0.066009, -0.136737, 0.121657, 0.052102, 0.02219, 0.050262, -0.044475, 0.191896, -0.372539, 0.171947, 0.107083, 0.224604, -0.110891, 0.313907, -0.095514, -0.009457, 0.084279, -0.046826, 0.004793, 0.097317, 0.141677, 0.107109, 0.020277, -0.143341, 0.06281, 0.008005, -0.170905, 0.017587, 0.101201, -0.214312, -0.089945, 0.267213, -0.163898, 0.060583, -0.111198, 0.227365, -0.010535, 0.101144, -0.045492, 0.039267, 0.097511, -0.014325, 0.089362, 0.068537, 0.100681, 0.059632, -0.286496, -0.142864, -0.086559, 0.035562, -0.183857, 0.076475, 0.136369, 0.173246, 0.128099, -0.099052, 0.192929, -0.222034, 0.014599, 0.174436, -0.063631, 0.265169, -0.019287, 0.220929, 0.145734, 0.353394, -0.100516, -0.036143, 0.020253, 0.019834, 0.062805, 0.0765, -0.161773, -0.167282, 0.082807, -0.145186, -0.203207, -0.038959, 0.110476, 0.005352, -0.08876, 0.005151, -0.062938, -0.114417, 0.018973, -0.092377, 0.054847, -0.023444], [-0.297825, 0.031715, -0.028212, -0.050932, 0.035339, -0.050079, 0.076826, 0.185983, 0.075749, -0.005189, -0.051328, 0.338002, -0.215281, -0.105022, -0.026811, 0.017939, 0.049906, -0.075515, 0.339925, -0.038955, 0.157387, -0.023346, -0.12737, -0.095981, -0.117413, 0.302301, -0.314313, -0.051851, 0.238789, -0.164492, -0.00771, 0.05949, 0.274344, 0.047902, 0.126443, 0.011472, 0.058464, 0.025522, -0.36373, 0.018096, -0.033087, 0.175334, -0.050282, 0.014387, 0.028782, -0.001051, 0.071291, -0.082531, 0.352545, -0.168287, -0.171859, -0.246579, 0.015427, -0.407901, 0.007066, -0.003272, -0.138978, 0.034895, -0.110613, 0.002893, -0.20351, -0.045238, 0.020351, 0.156728, 0.028186, 0.086865, 0.149348, 0.017658, -0.14447, 0.207306, 0.027484, -0.309573, 0.116779, -0.077447, 0.0521, -0.233648, 0.022034, 0.007106, 0.099863, -0.045756, -0.167733, -0.001964, -0.133396, -0.201367, 0.011128, -0.035104, 0.17349, 0.148871, -0.043056, -0.020678, 0.19634, -0.061192, -0.212364, -0.12178, -0.045132, -0.02722, -0.159556, 0.312138, -0.083941, -0.216021, 0.070253, -0.216025, -0.071111, -0.142823, -0.231312, -0.290086, 0.148088, 0.115596, -0.073457, 0.071057, -0.02299, 0.05835, 0.241137, 0.097069, -0.128142, 0.138084, 0.131734, -0.001839, 0.024937, 0.041018, 0.07651, 0.042602, 0.057425, 0.08405, -0.089379, 0.097106, -0.161165, 0.072408], [0.26009, -0.123359, 0.029386, 0.016632, -0.003585, 0.057056, -0.086288, -0.086353, -0.027821, 0.009946, 0.031321, -0.353744, 0.198928, 0.085358, -0.02283, -0.039523, -0.0587, 0.058864, -0.284994, 0.025109, -0.26068, 0.109772, 0.24519, 0.139981, 0.017287, -0.292763, 0.345414, -0.015895, -0.200985, 0.349458, 0.006834, -0.073551, -0.200916, -0.054531, -0.20575, -0.043459, 0.008917, 0.126814, 0.354884, -0.032385, -0.023028, -0.198621, 0.055018, -0.095137, 0.001176, 0.094198, 0.05756, 0.131729, -0.314906, 0.216033, 0.045203, 0.144588, -0.0401, 0.291435, -0.010986, -0.026894, 0.094464, -0.099306, 0.087654, 0.023182, 0.183044, 0.003668, 0.0607, -0.149642, -0.01277, -0.015126, -0.118931, -0.109252, 0.048939, -0.067081, -0.136807, 0.217715, -0.104583, -0.015382, -0.205192, 0.215845, 0.011219, -0.105666, 0.021896, 0.04131, 0.146374, 0.03688, 0.227666, 0.215225, 0.137902, 0.042285, -0.216623, -0.001995, 0.034476, 0.076444, -0.189455, 0.184911, 0.228915, 0.035506, 0.149611, -0.071274, 0.114195, -0.292446, 0.104238, 0.12766, -0.152843, 0.319541, 0.052728, 0.139069, 0.300145, 0.333692, -0.140724, -0.050221, 0.080334, -0.091218, -0.036889, 0.046872, -0.153711, -0.115653, 0.162277, -0.216525, -0.119753, -0.036033, 0.0453, -0.091869, -0.06083, -0.033234, 0.001304, -0.168278, 0.149057, -0.175368, 0.120588, -0.063217], [-0.315227, 0.133594, 0.038823, -0.024159, -0.111675, 0.043979, -0.015734, 0.105534, -0.037623, 0.011655, 0.042853, 0.323417, -0.174692, -0.035554, 0.027335, 0.129106, -0.036954, -0.111492, 0.441744, -0.022888, 0.172228, 0.028459, -0.105787, -0.042234, -0.036894, 0.334571, -0.392185, 0.039082, 0.085727, -0.268766, -0.002603, 0.074925, 0.329896, -0.009594, 0.102568, 0.12955, -0.058674, -0.131246, -0.381213, -0.040881, -0.104246, 0.090963, -0.040936, 0.06835, -0.095768, -0.000707, -0.009394, -0.206396, 0.238547, -0.138775, -0.174067, -0.131627, -0.029796, -0.32515, 0.096816, -0.044368, -0.161306, 0.051226, -0.100939, 0.031689, -0.171816, -0.057192, -0.152109, 0.282737, 0.043223, -0.002226, 0.17662, 0.093636, -0.107125, 0.073424, 0.071283, -0.232728, 0.075854, 0.030041, 0.140247, -0.359813, -0.044786, -0.107633, 0.078449, 0.027573, -0.154147, 0.036867, -0.260277, -0.077104, -0.005478, -0.068731, 0.131554, 0.097566, 0.102693, -0.068527, 0.310737, -0.236458, -0.137166, -0.030042, -0.041993, 0.058328, -0.09133, 0.334073, 0.037565, -0.123233, 0.10306, -0.306524, -0.072715, -0.173665, -0.141103, -0.221364, 0.165876, 0.097655, -0.024733, 0.128704, 0.05875, 0.043223, 0.212894, 0.230865, -0.099468, 0.222354, 0.065812, -0.038803, -0.08404, 0.112225, 0.07031, 0.033599, 0.005382, 0.051784, -0.082777, 0.086445, -0.109655, 0.048328], [0.33225, -0.096646, 0.093442, 0.022864, 0.024317, 0.078263, 0.007866, -0.072477, -0.034711, -0.040207, -0.046919, -0.338378, 0.205941, 0.062936, 0.028607, -0.127989, 0.044402, 0.147353, -0.427418, 0.03392, -0.186634, 0.009079, 0.187492, 0.037268, 0.08215, -0.219145, 0.381272, 0.00705, -0.173583, 0.227311, -0.059019, -0.146234, -0.298931, -0.048944, -0.177024, -0.09433, -0.042063, 0.024592, 0.451009, -0.007452, 0.016646, -0.124665, 0.107829, -0.054089, -0.011023, 0.023742, -0.02351, 0.092172, -0.297458, 0.261604, 0.122737, 0.257295, 0.024816, 0.292294, -0.060628, 0.069153, 0.038986, 0.006255, 0.002791, -0.003812, 0.175744, 0.010348, 0.13327, -0.20139, -0.000151, -0.01726, -0.255009, -0.121884, 0.058785, -0.127359, -0.167936, 0.18655, -0.106679, -0.050068, -0.067867, 0.202042, -0.018102, -0.004439, -0.129754, -0.054219, 0.176651, 0.045681, 0.203004, 0.174168, 0.062314, 0.021709, -0.27077, -0.031281, 0.035089, 0.091471, -0.147976, 0.07506, 0.17053, 0.048397, 0.108078, -0.045082, 0.104954, -0.33507, 0.127773, 0.19482, -0.110306, 0.217967, -0.061805, 0.211709, 0.149491, 0.315154, -0.154942, -0.054779, 0.104897, -0.10534, 0.03686, -0.004986, -0.251957, -0.198954, 0.184115, -0.238552, -0.138461, -0.038001, -0.012578, -0.086402, 0.040587, -0.037268, -0.066262, -0.174345, 0.035619, -0.126741, 0.096595, -0.110312], [-0.27295, 0.176687, -0.07247, -0.094462, 0.037332, 0.013666, -0.008012, 0.124945, -0.026984, 0.005603, -0.107901, 0.321276, -0.258135, -0.004785, -0.102872, 0.058062, -0.085526, -0.149972, 0.262754, -0.031255, 0.146386, -0.083319, -0.164712, -0.177186, -0.117281, 0.217599, -0.277426, 0.011285, 0.126699, -0.307021, -0.031627, 0.028736, 0.206374, 0.003361, 0.142911, 0.074698, -0.03396, -0.090903, -0.36572, -0.071427, -0.074907, 0.150104, -0.074034, 0.05969, 0.031733, 0.003974, -0.052096, -0.064399, 0.231794, -0.093959, -0.027854, -0.228758, 0.078946, -0.337703, -0.055194, -0.065724, -0.056348, 0.09127, -0.150305, 0.051892, -0.171475, 0.002656, -0.05588, 0.233601, -0.020841, 0.004492, 0.167831, 0.107536, -0.172196, 0.143125, 0.056445, -0.196597, 0.034697, -0.018463, 0.063153, -0.204849, -0.114317, 0.018285, -0.030253, 0.038123, -0.107448, 0.053744, -0.23785, -0.13784, -0.132513, -0.087986, 0.144686, 0.074116, 0.108839, -0.087196, 0.307279, -0.21938, -0.168514, -0.119274, -0.094642, -0.022654, -0.056765, 0.22304, -0.067449, -0.152037, 0.03373, -0.257288, 0.07611, -0.088258, -0.17645, -0.345293, 0.210738, 0.066259, -0.095363, 0.110566, 0.069714, 0.060596, 0.170464, 0.132296, -0.196332, 0.161773, 0.066319, 0.035347, -0.123711, 0.036324, 0.00904, 0.052865, 0.146151, 0.082697, -0.033223, 0.095395, -0.015298, 0.087775], [0.334063, -0.061518, 0.039389, 0.11362, 0.058457, -0.003414, -0.129349, -0.116445, 0.057513, -0.076926, -0.024386, -0.344613, 0.244405, -0.016774, 0.087238, -0.151292, 0.053672, 0.020813, -0.371883, 0.060794, -0.166031, 0.050399, 0.184888, 0.149583, 0.145172, -0.247346, 0.384107, -0.048529, -0.155649, 0.244012, -0.088283, -0.030284, -0.159768, -0.016863, -0.116367, 0.029004, 0.063272, 0.082622, 0.423712, -0.04128, 0.016922, -0.13369, 0.083861, 0.030597, -0.013531, 0.007546, 0.046521, 0.123035, -0.285123, 0.114432, 0.160217, 0.134863, 0.012643, 0.340848, -0.026464, 0.039752, 0.02257, -0.117149, 0.001941, 0.080934, 0.127074, 0.106232, 0.046175, -0.236753, 0.013269, -0.065026, -0.19432, -0.122205, 0.10041, -0.107778, -0.180285, 0.275777, -0.181401, 0.113176, -0.091975, 0.243236, 0.049135, -0.020129, 0.002067, -0.037109, 0.181193, 0.052282, 0.091611, 0.210133, -0.00801, 0.010464, -0.291212, -0.121259, -0.018146, -0.078207, -0.197393, 0.073506, 0.168257, 0.19575, 0.086001, 0.005824, 0.101687, -0.317293, 0.046848, 0.071392, -0.094195, 0.237774, -0.035966, 0.23072, 0.194532, 0.264968, -0.129293, -0.079185, 0.148777, -0.047406, 0.079678, 0.033008, -0.287098, -0.2121, 0.105216, -0.217733, -0.255765, -0.061654, 0.091843, -0.0782, 0.02415, 0.076993, 0.013137, -0.11241, 0.07482, -0.132401, 0.05675, 0.003949], [0.21277, -0.117752, -0.071254, 0.092479, 0.070431, -0.048537, -0.072885, -0.121567, -0.000639, 0.018831, 0.047373, -0.41148, 0.2635, 0.010351, 0.052155, -0.136763, -0.03982, 0.157295, -0.34949, 0.002214, -0.139162, 0.042068, 0.130653, 0.042778, 0.122581, -0.267184, 0.337659, 0.01462, -0.251469, 0.316106, 0.050722, -0.088719, -0.2181, -0.005386, -0.05478, 0.062177, -0.059893, 0.075208, 0.38275, 0.079778, -0.033395, -0.094548, 0.02795, -0.064952, 0.052266, 0.05843, 0.091951, 0.165454, -0.291994, 0.11633, 0.141145, 0.273604, -0.084976, 0.294946, -0.02021, 0.04402, 0.042586, -0.023075, 0.137096, 0.020528, 0.099594, -0.052161, 0.032408, -0.123766, -0.12876, -0.074151, -0.244768, 0.021912, 0.140528, -0.120292, -0.09674, 0.205043, -0.044969, 0.045713, -0.053825, 0.28277, 0.011196, -0.057711, -0.074603, -0.022798, 0.068961, 0.114717, 0.23531, 0.17442, 0.017775, -0.020293, -0.228216, -0.086648, -0.101862, 0.04439, -0.260548, 0.058764, 0.197877, 0.092422, 0.059787, -0.090147, 0.164038, -0.358199, 0.050317, 0.086523, -0.082423, 0.305121, 0.067542, 0.115589, 0.145747, 0.371824, -0.205644, -0.095114, -0.001166, -0.116335, 0.010887, 0.066602, -0.225055, -0.241049, 0.232516, -0.144587, -0.183847, 0.062886, 0.019138, -0.073452, -0.007655, -0.018459, -0.065221, -0.19721, 0.008691, -0.092541, 0.158473, -0.033701], [0.375842, -0.006361, 0.078727, 0.102056, 0.08325, -0.068213, -0.025344, -0.190291, -0.029253, -0.100712, 0.100293, -0.319475, 0.274416, 0.032335, -0.010724, -0.171167, -0.068891, 0.055652, -0.347062, 0.072347, -0.118543, -0.012445, 0.223736, 0.120038, 0.014818, -0.256358, 0.251673, -0.055699, -0.133163, 0.22601, -0.06586, 0.010019, -0.294929, 0.055809, -0.138584, 0.036266, 0.068882, 0.102394, 0.347923, 0.043766, 0.022398, -0.054151, 0.096749, -0.09166, 0.019016, 0.047124, 0.005289, 0.067138, -0.408738, 0.105439, 0.175557, 0.146564, -0.056426, 0.359375, 0.019349, 0.052093, 0.113309, 0.001275, 0.003114, 0.109609, 0.206466, 0.090404, 0.055629, -0.24847, -0.123365, -0.022716, -0.082654, 0.021786, 0.104193, -0.069286, -0.091853, 0.26243, -0.133066, 0.001435, -0.161146, 0.240642, -0.055805, -0.05669, -0.058151, 0.09369, 0.089609, 0.003013, 0.111051, 0.106095, 0.049449, 0.002017, -0.265841, -0.069062, -0.008366, 0.048622, -0.221094, 0.092017, 0.173618, 0.104332, 0.071094, -0.078233, 0.143658, -0.220934, 0.025911, 0.118905, -0.093207, 0.306698, -0.044753, 0.083811, 0.21817, 0.259544, -0.081596, -0.006757, 0.134159, -0.124456, 0.071204, 0.084561, -0.293257, -0.234457, 0.211103, -0.213577, -0.160742, -0.051569, 0.082534, -0.004761, -0.000467, -0.070242, -0.147497, -0.058254, 0.056258, -0.175029, 0.099539, -0.009373], [0.300834, -0.011705, -0.053329, 0.029033, 0.050083, 0.036773, -0.039722, -0.091776, -0.003614, -0.0936, -0.018246, -0.505255, 0.248377, -0.039591, 0.090174, -0.169318, 0.008249, 0.144246, -0.394052, -0.003785, -0.281283, 0.100928, 0.179324, 0.046358, 0.095074, -0.292513, 0.338733, 0.008403, -0.149576, 0.323302, -0.085872, -0.0246, -0.189111, -0.11499, -0.15567, -0.121807, -0.063071, 0.050852, 0.52589, -0.021413, 0.043279, -0.065802, 0.121518, 0.060338, -0.023042, 0.070213, 0.015955, 0.188948, -0.299457, 0.127981, 0.119057, 0.178141, -0.069787, 0.454472, -0.016156, 0.05047, 0.152903, -0.143351, 0.000725, 0.093305, 0.213394, -0.055785, 0.070933, -0.163135, 0.050982, 0.030622, -0.240845, 0.008072, 0.128835, -0.21207, -0.205407, 0.188292, -0.073046, 0.0744, -0.206019, 0.301495, -0.019549, 0.020563, -0.037738, 0.012336, 0.205884, 0.008518, 0.221995, 0.255403, 0.039384, 0.037244, -0.271378, -0.056923, -0.111743, -0.079094, -0.27358, 0.149511, 0.129022, 0.094622, 0.081971, -0.030741, 0.06757, -0.340707, 0.123986, 0.078764, -0.09764, 0.344433, 0.043142, 0.204203, 0.277004, 0.320746, -0.129965, -0.017805, 0.078671, -0.045481, 0.06278, -0.002822, -0.1304, -0.198934, 0.211961, -0.158408, -0.174356, -0.054692, 0.097512, -0.004662, 0.055042, 0.03162, -0.155352, -0.02647, 0.148294, -0.116963, 0.037238, -0.02887], [-0.235582, 0.044769, 0.035043, -0.010038, -0.133613, -0.064552, 0.033163, 0.117998, 0.082093, 0.056091, 0.039631, 0.335163, -0.176871, 0.034333, -0.040035, 0.152267, 0.049583, -0.111228, 0.332886, -0.082327, 0.108975, 0.035452, -0.194116, -0.069373, -0.019366, 0.234568, -0.348942, 0.018044, 0.202074, -0.258117, 0.066075, 0.148779, 0.209854, 0.022131, 0.172654, 0.101049, -0.000783, -0.086014, -0.422474, -0.0252, -0.024891, 0.071765, -0.014461, -0.020419, 0.045016, 0.021646, -0.086, -0.071165, 0.342366, -0.09708, -0.049722, -0.218494, -0.027774, -0.337968, 0.00421, -0.043416, -0.012407, 0.024739, -0.11216, -0.064046, -0.200189, -0.097806, -0.040118, 0.102235, 0.132041, -0.055163, 0.102115, 0.070927, -0.121422, 0.085457, 0.066179, -0.203997, 0.040426, -0.077079, 0.10956, -0.302306, -0.004691, 0.047513, 0.065553, 0.037559, -0.068684, 0.019436, -0.224252, -0.216527, -0.122124, -0.087241, 0.131876, 0.000497, 0.048792, -0.029634, 0.271142, -0.166875, -0.163343, -0.053861, -0.065795, 0.067455, -0.109136, 0.239733, -0.053447, -0.182906, 0.160534, -0.214916, 0.007235, -0.219809, -0.139222, -0.312379, 0.119143, -0.002415, -0.002541, -0.010427, -0.012678, -0.07895, 0.290628, 0.124068, -0.130901, 0.154755, 0.209964, 0.011174, -0.102846, 0.126082, -0.037505, 0.063837, 0.119397, 0.191036, -0.08519, 0.156832, -0.074825, 0.087759], [-0.322685, 0.023578, -0.073034, 0.021135, -0.081209, -0.056546, 0.112846, 0.08657, 0.01437, 0.001381, 0.034443, 0.399639, -0.132531, -0.072345, -0.088088, 0.099923, -0.01657, -0.122468, 0.296776, -0.067625, 0.232924, -0.092524, -0.102047, -0.13896, -0.030258, 0.323813, -0.412788, 0.023137, 0.119822, -0.290104, 0.056179, 0.132981, 0.156842, 0.096509, 0.082501, 0.038594, -0.003731, -0.098246, -0.463204, -0.031997, 0.044137, 0.120883, -0.164114, 0.098671, 0.052338, 0.006068, 0.079678, -0.072871, 0.293637, -0.210355, -0.122339, -0.259678, 0.021897, -0.292588, 0.029812, 0.020226, -0.178595, 0.064133, -0.045439, -0.035569, -0.192316, 0.034411, -0.080715, 0.133452, -0.006595, 0.025946, 0.111427, 0.060262, -0.162088, 0.102722, 0.166683, -0.227174, 0.101713, 0.045204, 0.226617, -0.317592, -0.043594, -0.071123, -0.008826, 0.070884, -0.193303, 0.038526, -0.094145, -0.219626, -0.055016, -0.038765, 0.248188, 0.130938, 0.063244, -0.069139, 0.293649, -0.184398, -0.216228, -0.155511, -0.046321, -0.00621, -0.066579, 0.284006, -0.062312, -0.130788, 0.161816, -0.317749, -0.039525, -0.203609, -0.170941, -0.357893, 0.099062, -0.02335, -0.121703, -0.032125, 0.034635, -0.058232, 0.213911, 0.213395, -0.096037, 0.142779, 0.084689, -0.048656, -0.126411, 0.128468, 0.085761, -0.033331, 0.001214, 0.110768, -0.1639, 0.180124, -0.026183, 0.037992], [-0.231129, 0.062528, 0.002041, 0.018358, 0.010436, -0.040973, 0.02906, 0.146633, 0.054977, -0.033774, -0.043441, 0.404211, -0.217999, 0.040366, -0.019704, 0.132775, 0.074619, -0.077537, 0.307605, -0.013814, 0.22367, 0.031304, -0.074463, -0.132758, -0.136636, 0.165192, -0.373301, 0.026041, 0.210635, -0.239576, -0.011536, 0.026914, 0.274454, -1.8e-05, 0.083959, 0.050964, 0.071398, -0.050744, -0.349899, 0.010079, -0.067043, 0.104395, -0.116387, 0.074405, -0.061388, -0.012756, -0.005811, -0.103936, 0.279324, -0.086757, -0.033215, -0.206329, 0.103681, -0.278766, 0.0013, -0.006768, -0.084596, -0.010752, -0.128473, -0.040142, -0.226471, -0.078104, -0.067396, 0.144486, 0.007195, -0.014051, 0.20204, 0.038122, -0.087229, 0.05642, 0.052119, -0.112002, 0.059101, 0.062003, 0.114227, -0.259529, 0.030538, 0.066156, 0.083389, 0.077577, -0.10647, -0.019195, -0.081743, -0.115663, -0.125612, -0.03958, 0.236244, 0.116235, 0.096106, -0.04297, 0.259324, -0.107467, -0.20144, -0.050004, -0.162469, 0.102955, -0.16284, 0.227281, -0.091667, -0.054829, 0.092349, -0.27957, -0.076771, -0.225557, -0.241091, -0.346005, 0.139799, 0.051321, -0.087113, 0.127451, -0.061018, -0.051076, 0.267603, 0.090868, -0.108502, 0.131595, 0.113536, 0.016492, -0.073405, 0.070583, 0.004107, -0.025021, 0.061551, 0.163854, -0.070418, 0.015111, -0.058299, -0.004702], [0.354596, -0.041608, 0.008723, 0.011092, 0.005741, -0.032928, -0.146598, -0.16305, -0.045135, -0.069223, 0.090767, -0.328376, 0.220909, -0.030206, 0.055019, -0.191813, -0.035548, 0.15597, -0.292257, 0.01182, -0.127788, 0.103359, 0.123845, 0.057773, 0.02211, -0.331024, 0.386626, -0.088714, -0.251881, 0.205594, -0.058224, 0.00084, -0.265988, -0.091447, -0.14101, 0.038594, -0.068096, 0.074788, 0.397153, 0.000201, -0.039271, -0.169262, 0.120403, -0.097259, 0.007608, 0.049995, -0.016467, 0.149607, -0.365594, 0.094435, 0.019988, 0.216931, 0.047469, 0.376552, 0.003549, -0.013484, 0.152132, -0.038377, 0.112158, 0.088268, 0.151345, -0.011003, -0.012746, -0.217187, -0.031394, 0.01718, -0.181859, -0.119524, 0.174516, -0.072879, -0.207116, 0.307893, -0.102626, -0.031294, -0.20919, 0.207941, 0.054201, -0.130614, -0.072104, 0.030134, 0.095027, 0.065083, 0.162564, 0.099472, 0.013612, 0.043125, -0.200962, -0.160405, 0.027143, 0.045831, -0.283293, 0.123449, 0.129085, 0.135443, 0.075196, -0.002074, 0.148524, -0.308182, 0.013205, 0.211283, -0.133246, 0.329783, 0.004807, 0.085168, 0.174485, 0.228297, -0.160985, -0.062217, 0.011349, -0.076835, 0.003297, -0.006401, -0.269232, -0.221511, 0.166918, -0.175699, -0.243409, -0.042168, 0.012153, -0.132998, 0.026402, -0.045055, -0.038728, -0.198599, 0.02779, -0.19551, 0.022603, -0.075447], [-0.204245, 0.062631, -0.050307, -0.061404, 0.038177, 0.016742, 0.060507, 0.039963, -0.050364, -0.001211, 0.002068, 0.385078, -0.25521, -0.000897, -0.057327, 0.104933, 0.063366, -0.106542, 0.37545, -0.053165, 0.204244, 0.014657, -0.091425, -0.06139, -0.100257, 0.193913, -0.319192, 0.057323, 0.155988, -0.209451, 0.091815, 0.021869, 0.220057, 0.040989, 0.110187, 0.064077, 0.063898, -0.092108, -0.415722, -0.002529, 0.053566, 0.154892, -0.060439, 0.013144, -0.076987, -0.045269, -0.069891, -0.05567, 0.24575, -0.199564, -0.019695, -0.128714, -0.018815, -0.337795, -0.016691, 0.000978, -0.15869, 0.1196, -0.0579, 0.033977, -0.233915, -0.041647, 0.014018, 0.193136, 0.011659, 0.040899, 0.219651, 0.07604, -0.06921, 0.106868, 0.097232, -0.263608, 0.085243, -0.063674, 0.153869, -0.189242, -0.012508, -0.013648, -0.027694, 0.023804, -0.06548, -0.107943, -0.076794, -0.180989, -0.017398, -0.119917, 0.22544, -0.010286, -0.054736, -0.043038, 0.168612, -0.160954, -0.165904, -0.020629, -0.078375, -0.050943, -0.171444, 0.177522, -0.112154, -0.064635, 0.024046, -0.134339, -0.102876, -0.125805, -0.158661, -0.316875, 0.047164, 0.08607, -0.092157, 0.04355, 0.047825, 0.008249, 0.281495, 0.129559, -0.20909, 0.193824, 0.080703, 0.086067, 0.006036, 0.084169, 0.096746, -0.047957, 0.067729, 0.143953, -0.111099, 0.015418, -0.140187, 0.084472], [0.337401, -0.164283, 0.086248, 0.065056, 0.021928, -0.052899, 0.004331, -0.081253, 0.009838, -0.121879, 0.047262, -0.349955, 0.107507, 0.080679, 0.002588, -0.167802, -0.011394, 0.111157, -0.408928, -0.003133, -0.159263, -0.029693, 0.06606, 0.139366, 0.039053, -0.269476, 0.330374, -0.040905, -0.215185, 0.247273, -0.004188, 0.006981, -0.158069, -0.015158, -0.099067, -0.010328, 0.07119, 0.026112, 0.358725, -0.021992, -0.019237, -0.09123, -0.006347, -0.10349, -0.004917, -0.021072, 0.022551, 0.064279, -0.24017, 0.1858, 0.002514, 0.221187, -0.079325, 0.375018, 0.046901, 0.010626, 0.161177, -0.008916, 0.019663, 0.051975, 0.205246, 0.077154, 0.052997, -0.123749, 0.041077, -0.05033, -0.164732, 0.033755, 0.135548, -0.134781, -0.104982, 0.150316, -0.136271, -0.017918, -0.198344, 0.284548, -0.039427, -0.028268, -0.050962, 0.062534, 0.196169, -0.014667, 0.207698, 0.156065, 0.104498, -0.026812, -0.176627, -0.008609, 0.039481, 0.053749, -0.260531, 0.212842, 0.220198, 0.098871, 0.098195, 0.038923, 0.162015, -0.288483, 0.031192, 0.051045, -0.16285, 0.219929, -0.033412, 0.231341, 0.253849, 0.23825, -0.153665, 0.026875, 0.154486, -0.095147, -0.071706, -0.002967, -0.142108, -0.139611, 0.192337, -0.192934, -0.162532, 0.01603, -0.031874, 0.008692, 0.076516, -0.045328, -0.056128, -0.011659, 0.152279, -0.051621, -0.002344, -0.138179], [0.307234, -0.045184, -0.031901, 0.040479, -0.007874, 0.080025, -0.110695, -0.157209, -0.016753, -0.030456, 0.035434, -0.331864, 0.179034, 0.102135, -0.010626, -0.061406, 0.045007, 0.008368, -0.278236, 0.049783, -0.231517, -0.007899, 0.203544, 0.164404, 0.129587, -0.31906, 0.224247, 0.015394, -0.156341, 0.280846, -0.027623, 0.000605, -0.140707, 0.047006, -0.062237, -0.103323, 0.047375, 0.067785, 0.424532, -0.019525, -0.05304, -0.130783, 0.025458, -0.087776, 0.040542, -0.065371, -0.075188, 0.170506, -0.329524, 0.113365, 0.089958, 0.180402, 0.00387, 0.269576, -0.017866, 0.043195, 0.083642, -0.052515, 0.131622, 0.014191, 0.237704, 0.00227, 0.07624, -0.237943, 0.050133, -0.05312, -0.236259, -0.059351, 0.190628, -0.064346, -0.122221, 0.209985, -0.09042, 0.040608, -0.192966, 0.182421, 0.001674, 0.056645, -0.001372, 0.046942, 0.11005, 0.009891, 0.079474, 0.057422, 0.001632, 0.105296, -0.235595, -0.065126, -0.037244, 0.036788, -0.197867, 0.076455, 0.126775, 0.09772, 0.044022, 0.030494, 0.066601, -0.244223, -0.015605, 0.148079, -0.077131, 0.200581, -0.043692, 0.075729, 0.132819, 0.349203, -0.082065, -0.040473, 0.020072, -0.072371, -0.019886, 0.09677, -0.193221, -0.198782, 0.0838, -0.255727, -0.067176, 0.067679, -0.034223, -0.109334, 0.070106, 0.079472, -0.122885, -0.07268, 0.106609, -0.062398, 0.055782, -0.014026], [0.446785, -0.002165, -0.028753, 0.053913, 0.080833, 0.053948, -0.03431, -0.09965, -0.063677, -0.119738, 0.055834, -0.379662, 0.200316, 0.021246, 0.03867, -0.07791, -0.021716, 0.121068, -0.410777, 0.060874, -0.306165, 0.071568, 0.235412, 0.092979, 0.015024, -0.269786, 0.352298, -0.063664, -0.250151, 0.208736, -0.093145, -0.088321, -0.303803, -0.02261, -0.105909, -0.094212, 0.069757, 0.072836, 0.422149, -0.011939, 0.116392, -0.124514, 0.018116, 0.003354, 0.02773, -0.019487, 0.025216, 0.196371, -0.397377, 0.232201, 0.166005, 0.181348, -0.101496, 0.382888, 0.028266, 0.091971, 0.030615, -0.089662, 0.105367, 0.140846, 0.288675, 0.039831, 0.055132, -0.214183, -0.097103, -0.036958, -0.207201, -0.012655, 0.23127, -0.219605, -0.162597, 0.21229, -0.19462, 0.072181, -0.187134, 0.150739, 0.08528, -0.033007, -0.097497, 0.098624, 0.208756, 0.013155, 0.135823, 0.184138, 0.097706, -0.044979, -0.279001, -0.01559, -0.069928, -0.029304, -0.174781, 0.093755, 0.278105, 0.148302, 0.091159, -0.036581, 0.083405, -0.306491, 0.073033, 0.212247, -0.151084, 0.338743, 0.079285, 0.102246, 0.348145, 0.268587, -0.12225, -0.130102, 0.119921, -0.037416, -0.012573, 0.068735, -0.194624, -0.28271, 0.200369, -0.24704, -0.269049, -0.063638, -0.036046, -0.059768, -0.045819, 0.07894, -0.141299, -0.047334, -0.026573, -0.2043, 0.206141, 0.00147], [0.349908, -0.036255, 0.062639, 0.016876, -0.021194, 0.017176, -0.063282, -0.155641, -0.096254, -0.131373, 0.082792, -0.419569, 0.233269, -0.034689, 0.097615, -0.144629, -0.056912, 0.14622, -0.357809, 0.019761, -0.254948, 0.077051, 0.119227, 0.013658, 0.086215, -0.219804, 0.408838, -0.089581, -0.207767, 0.321456, -0.048975, -0.029318, -0.213466, 0.02661, -0.173153, 0.03047, -0.045756, 0.052773, 0.482857, 0.071372, -0.046683, -0.047347, 0.163287, -0.099407, 0.085715, 0.019276, 0.072866, 0.173712, -0.359448, 0.239199, 0.142022, 0.293602, -0.024757, 0.323143, -0.058526, 0.057203, 0.01262, 0.02006, 0.040787, 0.060572, 0.237581, 0.028491, 0.091339, -0.109329, -0.088268, -0.108881, -0.132316, -0.100388, 0.190985, -0.150656, -0.089236, 0.215536, -0.100247, 0.061479, -0.194925, 0.244097, 0.050888, -0.083469, -0.013019, -0.03853, 0.167875, -0.005233, 0.228156, 0.070397, 0.078384, 0.000931, -0.189199, -0.032765, -0.096772, -0.029173, -0.278089, 0.131233, 0.220483, 0.0709, 0.050354, -0.040341, 0.197908, -0.269497, -0.034682, 0.19745, -0.072624, 0.327597, -0.012708, 0.05968, 0.263031, 0.267573, -0.086196, 0.01505, 0.091033, -0.05137, -0.01208, -0.019228, -0.250891, -0.188467, 0.118057, -0.185664, -0.240676, -0.063912, 0.041821, -0.125598, -0.02182, 0.069694, -0.090083, -0.18062, 0.093629, -0.115847, 0.136336, -0.006142], [-0.303895, 0.114871, 0.002454, 0.015524, -0.132478, -0.049041, 0.036553, 0.081737, -0.02463, 0.11129, -0.091271, 0.328805, -0.228746, -0.099958, 0.021245, 0.169177, -0.002827, -0.081421, 0.362675, 0.02805, 0.129892, 0.041898, -0.221221, -0.177938, -0.108318, 0.222318, -0.39074, 0.086673, 0.115815, -0.256824, -0.038363, 0.117746, 0.193395, -0.025598, 0.174569, -0.058045, -0.004678, -0.07122, -0.420473, -0.091354, -0.000218, 0.155995, -0.113462, -0.039784, -0.073469, 0.027858, -0.062583, -0.179168, 0.419813, -0.245937, -0.074599, -0.177676, 0.068866, -0.30635, -0.059832, 0.058891, -0.016676, 0.038109, -0.079437, -0.107395, -0.16788, -0.015993, 0.002517, 0.223738, 0.029466, 0.062769, 0.190597, -0.040048, -0.203999, 0.156266, 0.043715, -0.21826, 0.049274, 0.000857, 0.157462, -0.284006, 0.018972, 0.102029, -0.030332, 0.077749, -0.171865, -0.0236, -0.206401, -0.197022, -0.108055, 0.002818, 0.235379, 0.137631, -0.019226, 0.034488, 0.212583, -0.202277, -0.224761, -0.043812, -0.086704, 0.039783, -0.077099, 0.295815, 0.023409, -0.097946, 0.17845, -0.175469, 0.049708, -0.211723, -0.206888, -0.272453, 0.067491, 0.069507, -0.066019, 0.049188, 0.045628, -0.054007, 0.150083, 0.24129, -0.166744, 0.114855, 0.142887, 0.042318, -0.08983, 0.146851, 0.043746, 0.009562, 0.112809, 0.171664, -0.132924, 0.077373, -0.157615, -0.015962], [0.371799, -0.040966, 0.025374, 0.076152, 0.012546, 0.013036, -0.084466, -0.158418, -0.096285, -0.030537, 0.090165, -0.400477, 0.306732, 0.076592, -0.019379, -0.125075, -0.081084, -0.005896, -0.384498, 0.090463, -0.284765, 0.037731, 0.261638, 0.040525, 0.039402, -0.215111, 0.407889, -0.039238, -0.133619, 0.296101, 0.027807, -0.044232, -0.230791, 0.020191, -0.223865, -0.02272, -0.090656, 0.018087, 0.330478, 0.011557, 0.06639, -0.019176, 0.168212, -0.066547, 0.083038, 0.053918, 0.036596, 0.236539, -0.305542, 0.102525, 0.14139, 0.217497, -0.026994, 0.459218, -0.013035, 0.113807, 0.091174, -0.104792, 0.134206, 0.007637, 0.190796, -0.023746, 0.128031, -0.193599, -0.075744, -0.084945, -0.234664, -0.019137, 0.083621, -0.224609, -0.209821, 0.259273, -0.102404, 0.042707, -0.09359, 0.291976, 0.025846, -0.11193, 0.010568, 0.04862, 0.13313, 0.048219, 0.123676, 0.218141, 0.122549, -0.028559, -0.226004, -0.155327, -0.060142, 0.037538, -0.232781, 0.111646, 0.160309, 0.179611, 0.049823, 0.007387, 0.14793, -0.378996, 0.077986, 0.087773, -0.154281, 0.301301, 0.106225, 0.189241, 0.24343, 0.380889, -0.10046, -0.10697, 0.003032, -0.06014, -0.07662, 0.055251, -0.199306, -0.174131, 0.149298, -0.133608, -0.163091, -0.034226, 0.069071, -0.050105, -0.104849, 0.079943, -0.102729, -0.128335, -0.015606, -0.072077, 0.137181, 0.022946], [0.248905, -0.091799, 0.048397, -0.037764, 0.129702, -0.025574, -0.127279, -0.166515, -0.039529, -0.083679, -0.042708, -0.420439, 0.256393, 0.028138, 0.0142, -0.053652, -0.002313, 0.092746, -0.34166, -0.063777, -0.130671, -0.010779, 0.233219, 0.106578, 0.006597, -0.24542, 0.254973, 0.004161, -0.284629, 0.298021, 0.00045, -0.046279, -0.229596, -0.025832, -0.123951, 0.007105, -0.015804, 0.015147, 0.388453, 0.066742, 0.047577, -0.165268, 0.013553, 0.043287, -0.032623, -0.079928, 0.071374, 0.210471, -0.301633, 0.193637, 0.168694, 0.16534, -0.049309, 0.38198, 0.036988, 0.064379, 0.095791, -0.116051, 0.120458, 0.047528, 0.251023, 0.093358, 0.007771, -0.103558, -0.154877, -0.084356, -0.255873, -0.017953, 0.086012, -0.098716, -0.082539, 0.339086, -0.126863, 0.025039, -0.14158, 0.252421, -0.05039, -0.106454, -0.045666, 0.024322, 0.123321, -0.038073, 0.220384, 0.219313, 0.016162, -0.02827, -0.247322, -0.026384, 0.012747, 0.02166, -0.228959, 0.119949, 0.171753, 0.145609, 0.04944, -0.075144, 0.0938, -0.368763, 0.108991, 0.101908, -0.039538, 0.298002, 0.133558, 0.048036, 0.234945, 0.304962, -0.08267, -0.049512, 0.041995, -0.11425, -0.031358, 0.058429, -0.205119, -0.275205, 0.197057, -0.138167, -0.129863, -0.073394, 0.100044, -0.026031, -0.035192, 0.029486, -0.114356, -0.15048, -0.03663, -0.174563, 0.17773, 0.048909], [0.259256, -0.123185, 0.006354, 0.133561, -0.012443, -0.051488, -0.048714, -0.124125, 0.073635, 0.021862, -0.021182, -0.452699, 0.162905, 0.082203, 0.083103, -0.158898, 0.026697, 0.164961, -0.354479, 0.04212, -0.134866, -0.005126, 0.236596, 0.035756, 0.066913, -0.343635, 0.413987, -0.09749, -0.214306, 0.384819, -0.028124, -0.023868, -0.322174, -0.124606, -0.182978, -0.031662, -0.007337, 0.037823, 0.374785, -0.065469, 0.000555, -0.175612, 0.145773, -0.089655, 0.032587, 0.042259, -0.037729, 0.175273, -0.285901, 0.165935, 0.138743, 0.260374, -0.02985, 0.325329, -0.023558, 0.084509, 0.130491, -0.01931, 0.08875, 0.023623, 0.246708, 0.036669, 0.084447, -0.258298, -0.090346, 0.034178, -0.191597, -0.084865, 0.175288, -0.218988, -0.138651, 0.175332, -0.178952, 0.031648, -0.13594, 0.278736, 0.12086, 0.049564, -0.095595, 0.077808, 0.202102, -0.044032, 0.110856, 0.16631, 0.15301, 0.127388, -0.193197, -0.078631, -0.018542, 0.001539, -0.310712, 0.204515, 0.151627, 0.083335, 0.121651, -0.046552, 0.181774, -0.236949, 0.028228, 0.114306, -0.138923, 0.323436, 0.009822, 0.231198, 0.171425, 0.342823, -0.202681, -0.087827, 0.131818, -0.133173, 0.02715, -0.035531, -0.210454, -0.230758, 0.165393, -0.327141, -0.183192, -0.010913, 0.00581, -0.025123, 0.016918, -0.082327, -0.134649, 0.001379, 0.150718, -0.094022, 0.03329, -0.12088], [-0.268909, 0.058061, -0.072729, -0.10847, -0.029489, 0.018299, 0.105472, 0.153774, -0.009969, 0.051127, -0.026022, 0.463032, -0.261533, -0.016362, -0.064569, 0.192429, 0.0259, -0.037972, 0.296686, 0.015641, 0.195069, -0.109606, -0.155961, -0.069994, -0.017657, 0.241566, -0.308597, 0.047067, 0.186971, -0.360329, 0.099103, 0.028283, 0.317059, -0.006531, 0.135893, 0.068653, -0.013594, -0.026817, -0.368768, -0.046835, 0.049009, 0.057209, -0.10203, -0.052759, -0.100085, -0.079851, -0.011079, -0.084963, 0.346506, -0.18594, -0.178847, -0.195199, -0.025067, -0.296638, -0.066801, 0.009167, -0.020464, 0.10264, -0.143002, -0.066849, -0.18086, 0.053481, -0.04487, 0.28031, 0.084941, -0.006626, 0.261757, 0.060208, -0.059026, 0.148636, 0.099164, -0.147117, 0.162237, -0.052192, 0.214084, -0.273381, -0.095661, -0.008934, 0.149049, 0.055483, -0.118015, -0.120503, -0.227808, -0.085281, -0.039557, 0.021189, 0.259656, 0.146009, 0.056033, -0.061746, 0.273765, -0.177439, -0.192183, -0.182083, -0.04214, 0.008147, -0.179391, 0.305455, -0.03896, -0.200505, 0.132086, -0.246855, -0.063754, -0.238559, -0.207458, -0.239933, 0.153697, 0.111386, -0.0221, 0.014673, 0.040842, -0.034274, 0.283582, 0.137743, -0.110978, 0.272411, 0.127725, 0.053954, -0.120112, 0.06411, -0.027863, -0.056888, 0.082094, 0.071917, -0.066774, 0.107898, -0.095642, 0.14065], [0.1997, -0.171924, 0.048852, 0.11204, 0.121752, 0.071396, -0.085217, -0.141387, -0.041738, -0.104479, 0.01792, -0.394475, 0.238889, 0.120836, -0.03818, -0.182218, 0.086722, 0.10028, -0.310972, -0.023551, -0.136805, 0.043066, 0.167982, 0.168636, 0.115067, -0.195389, 0.250459, -0.017568, -0.194896, 0.359013, -0.016147, -0.131811, -0.288835, -0.078606, -0.074803, 0.043754, -0.070305, -0.019061, 0.442943, -0.052265, 0.104313, -0.061989, -0.000509, 0.039416, 0.058606, 0.067581, -0.00908, 0.054392, -0.296592, 0.223923, 0.057471, 0.24411, -0.031724, 0.290885, -0.037488, 0.064954, 0.149296, -0.038577, 0.001503, 0.02993, 0.228585, -0.000581, 0.01471, -0.262137, -0.055878, 0.051427, -0.117687, -0.116704, 0.039795, -0.060338, -0.082648, 0.157566, -0.047984, 0.070116, -0.100283, 0.315583, -0.013501, 0.07415, -0.009265, -0.019872, 0.070086, 0.001261, 0.173537, 0.125105, 0.016226, -0.027049, -0.186192, -0.121982, 0.020901, 0.093337, -0.184078, 0.155126, 0.083811, 0.084858, 0.063923, -0.090492, 0.19409, -0.238326, 0.088892, 0.183849, -0.070218, 0.16943, -0.034254, 0.212514, 0.156264, 0.246749, -0.180308, 0.014055, 0.029507, -0.090932, -0.047867, 0.081718, -0.157608, -0.097837, 0.231794, -0.231162, -0.092257, 0.012654, 0.115268, -0.055341, -0.009741, 0.028661, 0.001689, -0.056243, 0.125297, -0.040532, 0.095161, -0.149809], [-0.356242, 0.004081, 0.039568, 0.007061, -0.043222, 0.049604, 0.038574, 0.135793, -0.002648, 0.131765, 0.026986, 0.289228, -0.255727, -0.113864, 0.010007, 0.080917, -0.030348, -0.017957, 0.295802, 0.057304, 0.170767, -0.092856, -0.207598, -0.130644, -0.044118, 0.172853, -0.257154, 0.004826, 0.236771, -0.258024, 0.060185, 0.03925, 0.168646, 0.022685, 0.099547, -0.031955, -0.021941, -0.062313, -0.354899, -0.080025, -0.014469, 0.070428, -0.027502, 0.082311, 0.057496, 0.035979, -0.065737, -0.075694, 0.279741, -0.110023, -0.105115, -0.186441, -0.02917, -0.421293, 0.060269, -0.005222, -0.000574, 0.105471, -0.049762, 0.049702, -0.247182, -0.035801, -0.095604, 0.13361, 0.124559, -0.014769, 0.181776, 0.090346, -0.150972, 0.124041, 0.083485, -0.26768, 0.071927, -0.023634, 0.17047, -0.146693, -0.017579, 0.109046, 0.050107, -0.070236, -0.148156, -0.092559, -0.086414, -0.176091, -0.109127, -0.000422, 0.233862, 0.112967, 0.083616, 0.057335, 0.157266, -0.179984, -0.185554, -0.185057, -0.164166, 0.059474, -0.185449, 0.249031, 0.041904, -0.072959, 0.132181, -0.169159, 0.047885, -0.058293, -0.151864, -0.322042, 0.161876, -0.010127, -0.008051, 0.104572, 0.088751, 0.025017, 0.25235, 0.135224, -0.098416, 0.147389, 0.218217, 0.010279, -0.022322, 0.121644, 0.007005, -0.004062, 0.072901, 0.178521, -0.031868, 0.106757, -0.118662, 0.011422], [0.276008, -0.073257, -0.065552, 0.072895, 0.066134, -0.039102, -0.144435, -0.077905, -0.035391, -0.010045, 0.058194, -0.292972, 0.275231, 0.109095, 0.015096, -0.072076, 0.048079, 0.070257, -0.387943, 0.036341, -0.239202, 0.050398, 0.10709, 0.096893, 0.099196, -0.170781, 0.226178, 0.047664, -0.187637, 0.289704, 0.060695, -0.079303, -0.132857, -0.09883, -0.059735, 0.026657, -0.027184, 0.0235, 0.34887, -0.003621, 0.05504, -0.106265, 0.044466, -0.046144, -0.054995, 0.09901, -0.064627, 0.132566, -0.263938, 0.110952, 0.159394, 0.168475, -0.002166, 0.400462, -0.037237, -0.026617, 0.149063, 0.002634, 0.051956, 1.3e-05, 0.155955, -0.022523, -0.001956, -0.086859, -0.072629, 0.007212, -0.180807, 0.017765, 0.177416, -0.08822, -0.179249, 0.317697, -0.124279, 0.107281, -0.145989, 0.15309, -0.075707, -0.04013, -0.083672, -0.006342, 0.093408, 0.062544, 0.237637, 0.096267, -0.02734, 0.032807, -0.291313, -0.03114, -0.022893, 0.086423, -0.156843, 0.127676, 0.103851, 0.127622, 0.147419, -0.116028, 0.135759, -0.230922, 0.008066, 0.075792, -0.156731, 0.182945, 0.08661, 0.136667, 0.139507, 0.219329, -0.211526, -0.067579, 0.090775, -0.07626, 0.016814, -0.028207, -0.284484, -0.252109, 0.192658, -0.119463, -0.206566, 0.003345, 0.069965, -0.107214, 0.008531, -0.003713, -0.136433, -0.205421, 0.015408, -0.026889, 0.130626, -0.018639], [-0.281034, 0.019166, 0.040114, -0.096, 0.021268, 0.035974, 0.078201, 0.035944, 0.053929, 0.010722, -0.058235, 0.273385, -0.258519, 0.01575, -0.105531, 0.111917, -0.025465, -0.078375, 0.337307, 0.038668, 0.238209, -0.027484, -0.059019, -0.083167, -0.093485, 0.218273, -0.347733, 0.072852, 0.235186, -0.165419, 0.080714, 0.060194, 0.270738, -0.007936, 0.072942, -0.010982, 0.08856, -0.079066, -0.413708, -0.074478, -0.021124, 0.152315, -0.078094, -0.016328, 0.044146, -0.011339, 0.000955, -0.077051, 0.205381, -0.148046, -0.071492, -0.251589, 0.051687, -0.338786, -0.059367, -0.017906, -0.021328, 0.1373, -0.024463, -0.039157, -0.201426, 0.054198, -0.003723, 0.138555, 0.099455, 0.07611, 0.151651, 0.030481, -0.135673, 0.106862, 0.143288, -0.235038, 0.055072, -0.063523, 0.192539, -0.284363, 0.006031, -0.026202, 0.075942, -0.018958, -0.09035, -0.094807, -0.195642, -0.07769, -0.004641, -0.069023, 0.181797, 0.0811, -0.021149, -0.012102, 0.118175, -0.083779, -0.065674, -0.048226, -0.074302, -0.002028, -0.058851, 0.250418, -0.082942, -0.099195, 0.056703, -0.28361, 0.035888, -0.101474, -0.15237, -0.304405, 0.168684, -0.058352, -0.00811, 0.032107, 0.025439, 0.029785, 0.251367, 0.138208, -0.097768, 0.132107, 0.064657, -0.038171, -0.080977, 0.055976, 0.061716, -0.028295, 0.09313, 0.163255, -0.033499, 0.115195, -0.065521, 0.126824], [0.319539, -0.126152, -0.040717, 0.077263, 0.084372, 0.058021, 0.019227, -0.11446, -0.038674, 0.029075, -0.0149, -0.321602, 0.275748, 0.025406, -0.016271, -0.073144, -0.042441, 0.118831, -0.42151, 0.022837, -0.098514, 0.094248, 0.184002, 0.091955, 0.082811, -0.16742, 0.328062, -0.057641, -0.131451, 0.235883, -0.010956, -0.106405, -0.151751, -0.10168, -0.074153, -0.001432, -0.005604, 0.113402, 0.409518, 0.078182, 0.021783, -0.183142, 0.134211, 0.013313, 0.012592, 0.088244, 0.032013, 0.11766, -0.318124, 0.175604, 0.165013, 0.211007, 0.028629, 0.351708, -0.042971, 0.030583, 0.134476, -0.140637, 0.095162, 0.069893, 0.185568, 0.051717, 0.105022, -0.142277, -0.060075, -0.070434, -0.203477, -0.047992, 0.132474, -0.140749, -0.100173, 0.288697, -0.097545, -0.012631, -0.153087, 0.298397, 0.106715, 0.000177, -0.081583, 0.085767, 0.155419, 0.090632, 0.125153, 0.086241, 0.063356, 0.113431, -0.235068, -0.055201, -0.088204, 0.087158, -0.173296, 0.179716, 0.108862, 0.125767, 0.036578, 0.010696, 0.101179, -0.235416, 0.0385, 0.187076, -0.154978, 0.310647, 0.021014, 0.136619, 0.26432, 0.363598, -0.09483, -0.087023, 0.142726, -0.12159, -0.0051, -0.065126, -0.273276, -0.13409, 0.212262, -0.211206, -0.111077, -0.068684, -0.005592, -0.001854, 0.009987, -0.037454, 0.000722, -0.103761, 0.033645, -0.087533, 0.146711, 0.006297], [0.361404, -0.092351, 0.040534, -0.034543, 0.13943, 0.007672, 0.006715, -0.10982, 0.051983, -0.118305, 0.08591, -0.40576, 0.242598, 0.052773, -0.034943, -0.074429, -0.00276, 0.075855, -0.367318, -0.009401, -0.187766, 0.094308, 0.196165, 0.090174, 0.078589, -0.194658, 0.331217, 0.024765, -0.20442, 0.193291, -0.062918, -0.069917, -0.210948, 0.060309, -0.045454, 0.005973, -0.020619, -0.027549, 0.374977, 0.029378, 0.051557, -0.169727, 0.001875, -0.058757, 0.002602, 0.007751, 0.030338, 0.216344, -0.397365, 0.11824, 0.057529, 0.269178, -0.086033, 0.443556, -0.005016, -0.001906, 0.152816, -0.029724, -0.005688, 0.073975, 0.248012, 0.062034, 0.124398, -0.144011, -0.125723, 0.023917, -0.163803, -0.119476, 0.131952, -0.224141, -0.059843, 0.255741, -0.024827, 0.038213, -0.14906, 0.223821, 0.059113, -0.028157, -0.115121, 0.065143, 0.169777, 0.052857, 0.212249, 0.137955, 0.104813, 0.05849, -0.235369, 0.002196, 0.044369, -0.073946, -0.201143, 0.19091, 0.180549, 0.176372, 0.029491, 0.023017, 0.124784, -0.208424, 0.085402, 0.183514, -0.170741, 0.324684, 0.041023, 0.062103, 0.203936, 0.37355, -0.212485, -0.077398, 0.09931, -0.065776, -0.000141, 0.09986, -0.253104, -0.163561, 0.168778, -0.142149, -0.148237, -0.003964, 0.039674, -0.075155, -0.035357, 0.075169, -0.112252, -0.068676, 0.029883, -0.04081, 0.027242, 0.011782], [-0.219753, 0.113206, 0.005204, -0.041126, -0.098365, -0.075687, 0.117453, 0.060225, 0.006233, 0.022379, -0.098398, 0.464017, -0.289205, -0.091865, 0.038752, 0.088138, 0.035264, -0.050016, 0.299289, -0.013384, 0.109573, -0.098426, -0.162306, -0.166376, -0.013566, 0.269661, -0.407085, 0.092723, 0.132198, -0.26088, 0.016275, 0.107787, 0.308593, 0.0713, 0.10881, -0.04972, 0.064376, 0.030111, -0.357497, 0.011718, -0.051039, 0.122946, -0.120309, 0.00916, -0.108662, -0.05878, -0.024944, -0.174191, 0.316823, -0.116449, -0.167309, -0.249325, -0.013866, -0.326839, -0.036558, 0.038406, -0.164537, -0.001425, -0.005814, -0.051677, -0.121545, -0.001874, -0.071034, 0.140656, 0.000555, 0.014704, 0.098948, 0.12225, -0.130072, 0.143755, 0.196968, -0.29643, 0.199281, -0.007783, 0.072368, -0.2445, -0.027106, -0.054799, 0.001022, -0.036082, -0.189318, -0.0772, -0.176868, -0.120104, -0.122781, -0.061461, 0.151248, 0.144704, 0.05519, -0.015119, 0.285655, -0.186668, -0.156027, -0.03395, -0.105867, 0.055788, -0.161075, 0.343278, -0.005438, -0.104928, 0.115789, -0.315774, -0.029104, -0.115084, -0.169055, -0.310006, 0.216553, 0.073136, -0.022506, 0.088635, 0.031861, -0.065616, 0.125909, 0.143197, -0.17162, 0.190974, 0.229129, -0.058104, -0.085413, 0.024143, 0.053617, -0.043884, 0.115298, 0.162357, -0.149338, 0.07295, -0.12299, 0.033488], [0.249832, -0.070774, 0.081946, 0.114993, 0.038693, 0.035937, -0.043916, -0.064394, -0.036694, -0.048962, 0.007742, -0.36271, 0.260151, 0.027962, 0.099949, -0.056402, -0.02128, 0.035956, -0.31767, -0.046168, -0.104986, 0.08006, 0.236344, 0.112439, 0.016189, -0.295267, 0.389867, -0.089833, -0.128134, 0.351228, -0.027505, -0.020805, -0.218267, 0.05037, -0.125945, -0.038663, 0.041334, -0.022507, 0.444315, 0.051081, -0.02024, -0.105424, 0.02019, -0.01755, -0.040029, 0.086503, 0.076229, 0.10886, -0.256246, 0.166359, 0.100312, 0.222234, -0.116275, 0.324313, -0.092243, -0.065206, 0.02544, -0.068723, 0.039369, 0.053177, 0.131842, 0.024561, 0.010042, -0.263396, 0.031122, 0.065261, -0.195863, -0.089761, 0.172152, -0.090782, -0.130535, 0.126183, -0.130782, -0.041442, -0.193695, 0.330081, -0.029493, -0.007749, -0.049241, 0.077968, 0.093362, 0.099006, 0.205483, 0.170275, 0.065953, 0.000966, -0.19681, -0.073569, -0.082736, 0.016846, -0.249843, 0.181602, 0.138957, 0.133765, 0.097088, -0.072729, 0.140442, -0.33691, 0.002787, 0.199126, -0.072956, 0.294852, 0.051193, 0.237096, 0.28702, 0.236569, -0.118048, 0.026436, 0.116066, -0.109456, 0.040726, -0.04895, -0.140302, -0.218044, 0.192609, -0.17833, -0.068368, 0.046643, 0.108582, -0.004646, 0.046204, 0.043681, -0.112787, -0.070895, 0.025722, -0.091408, 0.140589, -0.152342], [0.374046, 0.00902, 0.087642, 0.032311, 0.012902, -0.049072, -0.04347, -0.128345, -0.048793, -0.008802, 0.062527, -0.345169, 0.307965, 0.054955, -0.027386, -0.054221, 0.068281, 0.085531, -0.369817, -0.003002, -0.144856, 0.003248, 0.198082, 0.095513, 0.117469, -0.180819, 0.380146, -0.093365, -0.153015, 0.249836, 0.066567, -0.13554, -0.19222, -0.012742, -0.183656, -0.034656, 0.069885, -0.027183, 0.464007, 0.051615, 0.048516, -0.160766, 0.097632, -0.100505, -0.031925, -0.031391, -0.065545, 0.095534, -0.273188, 0.154144, 0.111989, 0.289827, -0.030596, 0.404671, 0.048357, 0.072109, 0.053147, -0.101993, 0.12878, 0.03956, 0.224287, 0.038908, 0.140293, -0.207131, -0.12385, 0.015163, -0.087033, 0.018787, 0.193353, -0.078079, -0.193785, 0.280095, -0.0486, -0.038243, -0.106516, 0.225036, -0.054222, -0.024702, -0.119183, -0.006232, 0.051203, 0.065783, 0.176934, 0.177933, -0.010693, 0.053262, -0.146068, -0.079666, -0.093334, 0.056869, -0.145275, 0.065096, 0.189421, 0.090396, 0.165748, -0.116988, 0.149937, -0.249759, -0.039765, 0.107134, -0.133667, 0.306325, 0.066526, 0.212763, 0.259126, 0.251561, -0.097763, -0.001559, 0.082208, -0.138696, 0.020732, 0.049005, -0.28014, -0.205792, 0.1629, -0.122721, -0.176388, -0.057533, 0.091774, -0.144045, 0.0093, -0.042642, -0.104429, -0.083604, 0.008908, -0.119594, 0.02738, 0.010905], [-0.289, 0.01463, -0.004311, -0.087824, 0.010733, -0.033634, 0.129271, 0.101534, 0.042624, 0.055588, -0.049302, 0.373584, -0.158793, -0.023893, -0.060362, 0.133647, -0.04843, -0.067064, 0.371625, -0.058261, 0.129548, -0.107195, -0.158001, -0.099213, -0.089365, 0.232826, -0.404068, -0.025888, 0.235618, -0.290458, -0.051653, 0.08391, 0.210029, 0.074717, 0.193187, 0.081385, 0.08027, -0.048678, -0.401721, 0.057882, 0.048155, 0.109613, -0.091535, 0.100818, 0.001506, -0.093699, -0.057323, -0.108417, 0.264933, -0.125889, -0.132216, -0.129775, 0.095236, -0.394133, -0.005921, -0.078592, -0.00857, 0.046507, -0.02466, 0.028908, -0.127209, -0.019787, -0.000544, 0.149829, 0.077, 0.072551, 0.125404, 0.117966, -0.04141, 0.177131, 0.064701, -0.152129, 0.096709, -0.05814, 0.10783, -0.26374, 0.029903, 0.085038, 0.088394, -0.062104, -0.114055, 0.042398, -0.218208, -0.078562, -0.090949, 0.021491, 0.151906, 0.143434, 0.026631, 0.049897, 0.204824, -0.165317, -0.234817, -0.178369, -0.067467, 0.078673, -0.159053, 0.314622, -0.082158, -0.110435, 0.024202, -0.183513, -0.07106, -0.096313, -0.242582, -0.248154, 0.126404, 0.082859, -0.100915, 0.01824, 0.083033, -0.085909, 0.187094, 0.128321, -0.1912, 0.254754, 0.255447, 0.086093, -0.053305, 0.151727, 0.023609, 0.070927, 0.110496, 0.054121, -0.12754, 0.151935, -0.028972, 0.078945], [0.334674, 0.005164, 0.056787, -0.040771, -0.002474, -0.001902, -0.062062, -0.15212, 0.035671, 0.029225, -0.015597, -0.351315, 0.290705, 0.013362, 0.093981, -0.178524, 0.031873, 0.062394, -0.468448, 0.083996, -0.204795, 0.049186, 0.200959, 0.048711, -0.002856, -0.233831, 0.321393, 0.019341, -0.23466, 0.213031, -0.040587, -0.065076, -0.300039, -0.005759, -0.217351, -0.060659, 0.004708, 0.015735, 0.408913, -0.009742, 0.026505, -0.134884, 0.093494, 0.028394, -0.031565, 0.014219, -0.032999, 0.166894, -0.351082, 0.273462, 0.090663, 0.175194, -0.064645, 0.451135, 0.008529, 0.055065, 0.03473, -0.124725, 0.097065, 0.016454, 0.182411, 0.078263, 0.055978, -0.265432, 0.027321, -0.078404, -0.140471, -0.122668, 0.140288, -0.076737, -0.040982, 0.279099, -0.161809, 0.089895, -0.187662, 0.243741, 0.124609, 0.124019, -0.037506, 0.02926, 0.237856, 0.043262, 0.194166, 0.226898, 0.095847, 0.006939, -0.288703, -0.077641, 0.041317, -0.076358, -0.227146, 0.231183, 0.135583, 0.113121, 0.107914, -0.051696, 0.108734, -0.30947, 0.062405, 0.100997, -0.042402, 0.243294, -0.033201, 0.235094, 0.248128, 0.31163, -0.193491, 0.037164, 0.103024, -0.097504, -0.025724, 0.042733, -0.217828, -0.140869, 0.099681, -0.231724, -0.209673, -0.022268, -0.01977, 0.002704, -0.081558, -0.069582, -0.019372, -0.081923, 0.164007, -0.154347, 0.18318, -0.059227], [0.21034, -0.143419, 0.043814, 0.060523, 0.05289, 0.041837, -0.017763, -0.153835, 0.02166, -0.072588, 0.046734, -0.465085, 0.205902, 0.083438, 0.110153, -0.101167, 0.107724, 0.064787, -0.450017, 0.121724, -0.15908, -0.028872, 0.251977, 0.079893, 0.002289, -0.32677, 0.377974, -0.076359, -0.134057, 0.394486, -0.076859, -0.039838, -0.369953, -0.093487, -0.168593, -0.000571, 0.069496, 0.001662, 0.482905, 0.035009, 0.122338, -0.211666, 0.112898, -0.037401, 0.055534, 0.05092, -0.001953, 0.188696, -0.345862, 0.249433, 0.076006, 0.137926, 0.034404, 0.396035, -0.080836, 0.116242, 0.184869, -0.17709, 0.082134, 0.049046, 0.091923, -0.026117, 0.198509, -0.363689, 0.138958, 0.03573, -0.259567, -0.091499, 0.131219, -0.142053, -0.09772, 0.016668, -0.15352, 0.046187, -0.209028, 0.29851, 0.108798, 0.158848, -0.038447, -0.018418, 0.244549, 0.045115, 0.178719, 0.260643, 0.142566, 0.027332, -0.213891, 0.003857, -0.056835, 0.064873, -0.403335, 0.153943, 0.162661, 0.174817, 0.13321, 0.010279, 0.149385, -0.147202, 0.015882, 0.144114, -0.177049, 0.285429, 0.038525, 0.230987, 0.253156, 0.371324, -0.116336, 0.005315, 0.141723, -0.018683, -0.016988, 0.100296, -0.136462, -0.194415, 0.118132, -0.301085, -0.180345, 0.008218, 0.007032, -0.031524, -0.041991, 0.012049, -0.034701, 0.012591, 0.120179, -0.140567, 0.210764, -0.256518], [-0.296026, 0.042266, 0.011808, -0.07049, -0.188224, 0.012448, 0.060387, 0.163499, 0.025218, 0.026956, 0.00676, 0.522306, -0.137982, -0.054559, -0.029868, 0.158803, -0.014873, -0.072312, 0.454132, -0.083298, 0.277569, -0.071988, -0.138262, -0.120593, -0.028264, 0.280486, -0.375934, 0.124252, 0.230945, -0.375325, 0.006194, 0.07161, 0.365087, 0.022512, 0.221163, 0.034298, 0.044154, -0.114137, -0.55834, 0.013551, -0.122003, 0.092539, -0.02694, -0.056557, -0.013426, -0.076745, -0.008258, -0.155868, 0.306653, -0.331144, -0.183995, -0.171763, 0.026126, -0.448688, 0.055341, -0.148533, -0.069575, 0.086882, -0.001231, -0.014536, -0.123731, 0.037222, -0.105797, 0.248943, -0.116156, 0.009145, 0.155263, 0.092964, -0.087336, 0.217541, 0.134777, -0.134842, 0.196553, 0.053384, 0.223192, -0.231061, -0.114573, -0.127916, 0.067962, 0.028923, -0.255579, -0.127392, -0.152971, -0.344713, -0.085686, 0.033895, 0.205049, -0.018842, 0.030717, 0.003788, 0.294095, -0.267843, -0.336701, -0.102753, -0.059094, 0.011711, -0.069574, 0.264441, -0.086963, -0.147443, 0.116493, -0.268308, -0.063487, -0.245784, -0.278789, -0.351307, 0.112117, 0.022705, -0.14051, -0.004909, 0.047791, -0.098226, 0.123362, 0.133372, -0.103353, 0.259042, 0.149331, 0.02733, 0.020044, 0.072982, 0.000247, 0.021002, 0.109617, 0.026285, -0.173677, 0.245668, -0.25926, 0.255654], [0.343875, 0.016631, 0.073973, 0.049487, 0.005926, 0.030628, -0.01927, -0.031971, 0.052296, 0.023541, 0.019344, -0.372654, 0.269322, 0.029459, 0.030359, -0.152233, -0.022638, 0.011392, -0.438726, 0.041486, -0.207115, 0.028425, 0.180113, 0.155781, 0.00372, -0.248665, 0.416907, 0.013762, -0.207751, 0.3467, 0.038358, -0.040294, -0.288832, 0.026291, -0.224993, 0.01049, -0.033834, 0.02836, 0.487032, -0.004745, 0.00182, -0.071995, 0.071944, 0.062687, -0.029963, 0.055582, 0.01452, 0.214442, -0.30331, 0.104622, 0.090337, 0.269364, -0.059044, 0.350545, -0.069859, 0.066568, 0.146117, -0.124263, 0.090374, 0.084997, 0.167936, -0.037747, -0.003259, -0.19947, -0.018421, 0.046893, -0.11526, -0.080347, 0.178204, -0.204463, -0.063016, 0.231267, -0.110324, 0.12736, -0.180559, 0.181975, 0.114253, -0.060699, -0.113282, 0.097672, 0.203092, -0.035645, 0.221426, 0.105152, 0.127819, -0.016082, -0.145508, -0.028228, -0.058873, -0.061827, -0.263587, 0.057109, 0.266278, 0.116226, 0.181076, -0.076425, 0.047542, -0.355708, 0.061965, 0.232916, -0.079525, 0.22201, 0.009956, 0.177982, 0.31673, 0.311184, -0.21944, -0.074374, 0.067623, -0.052826, -0.046928, 0.064773, -0.281071, -0.208365, 0.182799, -0.152115, -0.191037, -0.056647, -0.0474, -0.084931, 0.02841, 0.041208, -0.015528, -0.032667, 0.063247, -0.084006, 0.098644, -0.067885], [-0.39748, 0.063358, -0.041902, -0.087796, -0.069648, 0.026294, 0.075965, 0.038162, 0.089527, -0.00582, -0.080582, 0.351831, -0.282232, 0.014877, -0.058371, 0.189566, 0.002128, -0.04912, 0.371387, -0.066929, 0.116098, 0.034656, -0.21077, -0.047094, -0.096036, 0.269608, -0.318248, -0.03665, 0.160103, -0.343725, 0.011826, 0.03517, 0.303626, -0.001913, 0.142303, 0.055751, 0.00649, -0.069799, -0.508324, 0.014657, -0.024946, 0.180812, -0.125256, -0.070091, 0.054052, -0.025968, 0.060589, -0.246834, 0.326337, -0.190628, -0.1641, -0.19204, 0.007401, -0.456534, 0.070859, -0.126719, -0.143093, 0.072444, 0.000164, -0.062171, -0.222823, -0.00581, -0.14955, 0.120697, 0.025639, -2.7e-05, 0.260034, 0.024363, -0.062161, 0.111243, 0.054344, -0.159411, 0.115425, -0.104628, 0.193651, -0.175025, 0.011436, -0.147759, 0.136484, -0.052877, -0.21757, -0.006515, -0.213257, -0.134594, -0.059724, 0.034377, 0.197953, 0.006779, 0.029865, 0.022619, 0.260823, -0.154589, -0.169556, -0.082858, -0.081953, 0.107569, -0.17599, 0.291737, -0.103804, -0.080537, 0.042835, -0.321358, -0.06233, -0.186532, -0.275576, -0.403889, 0.220869, -0.023224, -0.110446, 0.088874, 0.067241, -0.034932, 0.271895, 0.229333, -0.120354, 0.281198, 0.132947, 0.060464, 0.043146, 0.072646, 0.01451, -0.04556, 0.089725, 0.10925, -0.04598, 0.081736, -0.187433, 0.16176], [0.361303, -0.069174, 0.0678, 0.119933, 0.022772, 0.086663, -0.07683, -0.152485, -0.062804, -0.047851, 0.093457, -0.342943, 0.300259, 0.000104, 0.029596, -0.078744, -0.051383, 0.166301, -0.251197, 0.085792, -0.168733, -0.032423, 0.106958, 0.046622, 0.028803, -0.198451, 0.311852, -0.034043, -0.283033, 0.198198, -0.048309, -0.036737, -0.234107, 0.005582, -0.183104, 0.063211, 0.030963, 0.010915, 0.437078, -0.043078, -0.033251, -0.093994, 0.133891, -0.044104, 0.098074, 0.081938, 0.059454, 0.127702, -0.378179, 0.143349, 0.072151, 0.307926, 0.038845, 0.406669, 0.008814, 0.016037, -0.007478, -0.040801, 0.135921, -0.041278, 0.152226, -0.037886, 0.08864, -0.170539, -0.07478, 0.036479, -0.104663, -0.093166, 0.120408, -0.19713, -0.088563, 0.242384, -0.166788, 0.073238, -0.096691, 0.155613, -0.105998, -0.019406, -0.031318, -0.025865, 0.134569, -0.036025, 0.115981, 0.043787, 0.1023, 0.115092, -0.295942, -0.149725, -0.064832, -0.039657, -0.25962, 0.084399, 0.167625, 0.16907, 0.01571, -0.026502, 0.113803, -0.318829, -0.030944, 0.140449, -0.124904, 0.298667, 0.002971, 0.082627, 0.139717, 0.343213, -0.077855, -0.105527, 0.05997, 0.000485, 0.081536, -0.066576, -0.307411, -0.20283, 0.20903, -0.137053, -0.150028, 0.07784, -0.038931, -0.089859, -0.046789, -0.057407, -0.127938, -0.209634, 0.139271, -0.125003, 0.025094, -0.129343], [0.367597, -0.00582, -0.042087, 0.042056, 0.040174, 0.093147, 0.028927, -0.152181, -0.080276, -0.059263, 0.050955, -0.325271, 0.268639, 0.056766, -0.019791, -0.047439, 0.054801, 0.111025, -0.406118, -0.002367, -0.207227, -0.007986, 0.164507, 0.175909, 0.117649, -0.205238, 0.304329, -0.050515, -0.174761, 0.194604, -0.097604, -0.077446, -0.297324, -0.111467, -0.148606, -0.009401, -0.059371, -0.009719, 0.395775, 0.062331, -0.006298, -0.046181, 0.058357, 0.039783, 0.084972, 0.021383, 0.028665, 0.11926, -0.300512, 0.163265, 0.014408, 0.142709, -0.080415, 0.361046, 0.049523, 0.04833, 0.090519, -0.071162, 0.0883, 0.080408, 0.181188, 0.04996, 0.142556, -0.118913, -0.004866, 0.035293, -0.129761, -0.071921, 0.099629, -0.156199, -0.118949, 0.148779, -0.188725, 0.050431, -0.127315, 0.260765, 0.0931, -0.044137, -0.013798, -0.061073, 0.168328, 0.092866, 0.160508, 0.206823, 0.127212, 0.060033, -0.25846, -0.11674, -0.032148, 0.062035, -0.269849, 0.14207, 0.186116, 0.155132, 0.12052, -0.041688, 0.089211, -0.268067, -0.042112, 0.200599, -0.154667, 0.269014, 0.089366, 0.160624, 0.135894, 0.268934, -0.203624, 0.001867, 0.023027, -0.125169, 0.053056, -0.002287, -0.292269, -0.169371, 0.150312, -0.238302, -0.10929, 0.059813, 0.089686, -0.099279, 0.014039, 0.058837, -0.107301, -0.179266, 0.07618, -0.164212, 0.015257, -0.030559], [-0.327068, 0.145074, 0.03108, -0.098865, -0.11649, 0.059229, 0.06259, 0.095666, -0.023508, 0.070434, -0.062269, 0.354383, -0.25554, -0.082162, 0.02046, 0.091892, 0.066375, -0.034982, 0.338028, -0.093935, 0.135659, -0.053323, -0.204709, -0.178495, -0.04067, 0.292409, -0.388562, 0.036411, 0.200274, -0.211722, 0.055016, 0.027597, 0.266342, -0.039444, 0.086419, -0.017872, -0.060669, -0.135238, -0.330232, -0.077728, -0.084184, 0.10698, -0.153789, 0.105908, -0.104844, -0.040369, -0.032333, -0.217793, 0.299415, -0.170588, -0.103895, -0.261035, 0.114415, -0.284474, 0.074814, 0.030281, -0.105362, 0.07965, -0.067659, -0.0613, -0.228296, 0.026051, -0.155974, 0.166085, 0.103178, -0.022031, 0.249771, 0.115269, -0.040728, 0.103208, 0.051947, -0.181878, 0.036379, 0.054262, 0.123779, -0.312496, -0.101583, -0.071285, -0.010358, -0.072003, -0.143195, -0.050693, -0.238068, -0.162746, -0.097721, -0.101436, 0.273025, 0.103237, 0.116029, -0.014556, 0.264847, -0.056045, -0.106996, -0.149604, -0.128805, 0.025906, -0.204262, 0.242694, -0.03691, -0.201105, 0.094941, -0.262321, -0.05001, -0.094727, -0.216331, -0.214706, 0.211003, 0.069891, -0.029253, 0.096697, 0.049805, -0.018745, 0.187337, 0.162596, -0.183456, 0.256998, 0.100758, 0.086878, -0.000897, 0.077692, 0.076902, -0.071486, 0.046764, 0.160297, -0.044251, 0.080143, -0.11769, 0.146354], [-0.327921, 0.05903, 0.049472, -0.011918, -0.133393, 0.054818, 0.04591, 0.044682, 0.070135, -0.018824, 0.012305, 0.358477, -0.148996, -0.008396, -0.031642, 0.157224, -0.09189, -0.023876, 0.463807, -0.034377, 0.147244, -0.022772, -0.144226, 0.020469, -0.1163, 0.323048, -0.368284, 0.113569, 0.237059, -0.313204, 0.013703, 0.089959, 0.223723, 0.073113, 0.224437, 0.013641, 0.033358, -0.014922, -0.433838, -0.018595, -0.036468, 0.058859, -0.033062, -0.027428, -0.023305, -0.061674, -0.015346, -0.137399, 0.311964, -0.262976, -0.094635, -0.126494, -0.021217, -0.389324, 0.091545, -0.160255, -0.103684, 0.072483, -0.077115, -0.096823, -0.169164, 0.033229, -0.086122, 0.157468, 0.015544, 0.05478, 0.156961, -0.010468, -0.076912, 0.076503, 0.178238, -0.255305, 0.174244, -0.069856, 0.20421, -0.310144, -0.140571, -0.083738, 0.125202, -0.086931, -0.089294, -0.109334, -0.136125, -0.240212, -0.157629, -0.119953, 0.19079, 0.039279, -0.034421, 0.033986, 0.324945, -0.07413, -0.228192, -0.221214, -0.10006, -0.013729, -0.113943, 0.199365, -0.041473, -0.070087, 0.055183, -0.339942, -0.085028, -0.167148, -0.211174, -0.382831, 0.202707, 0.11627, -0.088501, 0.112964, 0.057999, 0.030952, 0.265503, 0.229512, -0.126926, 0.315838, 0.138267, 0.091383, -0.010932, 0.084741, 0.033253, -0.067832, 0.004588, 0.151238, -0.1295, 0.114628, -0.193044, 0.080692], [-0.226325, 0.125963, -0.031427, -0.056767, 0.017053, 0.003534, 0.120131, 0.131688, -0.034863, 0.014549, -0.036727, 0.451625, -0.327999, -0.049572, 0.048822, 0.117369, -0.008082, -0.027101, 0.367244, -0.048826, 0.128175, 0.036121, -0.152985, -0.105107, -0.141843, 0.330804, -0.261056, -0.007396, 0.278515, -0.315711, 0.053184, 0.020941, 0.175172, -0.058414, 0.094667, 0.093909, 0.095675, -0.099465, -0.448268, -0.021911, -0.101135, 0.06394, -0.125791, 0.01697, -0.016693, 0.029327, -0.082971, -0.103394, 0.310787, -0.116252, -0.099644, -0.168761, 0.095644, -0.408581, 0.041529, 0.013135, -0.107355, 0.024738, -0.06686, 0.005726, -0.182831, 0.013172, 0.003507, 0.162056, 0.007682, 0.106761, 0.204017, 0.077358, -0.158884, 0.117246, 0.144366, -0.188351, 0.080957, 0.052372, 0.044384, -0.302808, -0.038405, 0.061921, 0.076619, -0.016326, -0.178167, 0.006078, -0.13853, -0.090609, -0.069369, 0.006934, 0.162724, 0.008198, 0.044924, -0.016844, 0.196586, -0.049238, -0.111105, -0.213556, -0.070198, 0.075159, -0.198119, 0.36046, 0.008511, -0.250197, 0.197722, -0.18254, -0.025384, -0.190002, -0.305534, -0.346476, 0.203829, -0.036541, -0.140073, 0.113151, 0.030805, 0.080728, 0.165684, 0.15147, -0.166941, 0.127062, 0.235281, -0.034635, -0.007748, 0.003654, 0.073755, 0.034619, 0.149857, 0.052686, -0.140684, 0.065635, -0.036557, 0.075193], [0.394681, 0.033191, 0.080074, 0.073084, 0.156033, 0.048577, -0.122586, -0.200524, -0.089084, 0.0255, 0.009977, -0.373932, 0.187641, 0.047703, -0.015437, -0.198325, 0.132867, 0.170862, -0.409211, 0.044143, -0.18605, 0.076705, 0.129813, 0.018217, 0.011697, -0.35063, 0.360385, -0.144304, -0.167047, 0.342668, -0.085791, -0.120014, -0.218964, -0.120032, -0.129053, -0.104885, -0.007547, 0.141378, 0.535682, -0.081891, 0.098459, -0.100735, 0.133498, 0.040732, 0.048532, 0.006757, 0.026357, 0.213251, -0.397061, 0.261847, 0.148587, 0.175857, -0.002111, 0.496365, 0.021062, 0.169028, 0.099034, -0.078278, -0.023049, 0.064719, 0.197815, -0.016052, 0.136831, -0.214448, 0.107067, 0.026432, -0.130281, -0.102234, 0.065377, -0.163984, -0.084964, 0.142761, -0.192276, 0.091727, -0.110298, 0.230362, 0.153869, 0.074101, -0.152158, -0.004728, 0.212793, -0.008018, 0.219146, 0.264343, 0.090452, -0.023059, -0.245233, -0.035906, -0.062044, -0.026335, -0.268094, 0.220686, 0.298598, 0.174502, 0.039338, -0.108628, 0.128949, -0.231526, 0.080569, 0.103189, -0.033391, 0.240655, 0.069912, 0.244259, 0.224753, 0.353808, -0.171633, -0.054343, 0.090405, -0.013362, 0.061453, 0.087369, -0.230733, -0.271277, 0.167507, -0.351797, -0.092863, -0.042492, 0.006523, -0.066935, -0.052125, -0.059022, -0.075559, -0.069627, 0.114806, -0.082524, 0.089529, -0.145203], [-0.233498, 0.145024, 0.078241, -0.031607, -0.033491, -0.07568, 0.125912, 0.193183, 0.061904, 0.069974, -0.08164, 0.285818, -0.326661, -0.10891, 0.022518, 0.147141, -0.012844, -0.09162, 0.253753, -0.005319, 0.12095, -0.114998, -0.179721, -0.076531, -0.11884, 0.323591, -0.337404, 0.072439, 0.16467, -0.195543, -0.065355, 0.049759, 0.170532, -0.025844, 0.196882, 0.100917, -0.068625, -0.048872, -0.341159, -0.07948, 0.056172, 0.116309, -0.101664, -0.059073, -0.103105, -0.013905, -0.072038, -0.116445, 0.363191, -0.17056, -0.174963, -0.188018, 0.102311, -0.304408, -0.087795, 0.037756, -0.089438, -0.005299, -0.15719, 0.020918, -0.229329, -0.115262, 0.015898, 0.110733, 0.127107, -0.031111, 0.169483, -0.017893, -0.165511, 0.202622, 0.130113, -0.318461, 0.113267, -0.077712, 0.150836, -0.220487, 0.079648, 0.072752, -0.009792, -0.067889, -0.078582, -0.034435, -0.190165, -0.131213, -0.079888, -0.021105, 0.185609, 0.134727, 0.081697, 0.07402, 0.247199, -0.124296, -0.189127, -0.065911, -0.165864, 0.047014, -0.224095, 0.318345, -0.095763, -0.074926, 0.096216, -0.317431, 0.029045, -0.18524, -0.210775, -0.286612, 0.070377, -0.003108, -0.071901, 0.100269, -0.041148, 0.050538, 0.261682, 0.160883, -0.177832, 0.116129, 0.267653, 0.074976, 0.032869, 0.119811, 0.038579, -0.035694, 0.024008, 0.19125, -0.038415, 0.029914, -0.015807, -0.026198], [-0.321376, 0.059618, -0.034848, 0.001558, 0.004846, 0.037839, 0.044111, 0.195724, 0.051235, 0.079975, 0.049787, 0.437945, -0.254724, -0.038782, -0.085971, 0.135118, -0.052257, -0.022563, 0.397814, -0.01321, 0.210773, -0.075409, -0.103478, -0.071676, 0.02006, 0.289899, -0.245369, -0.063959, 0.277514, -0.255945, -0.048756, 0.121784, 0.239053, 0.057646, 0.102768, 0.040916, 0.086603, 0.008513, -0.468608, -0.03925, -0.023424, 0.144466, -0.024631, 0.013156, -0.040674, 0.023496, -0.009198, -0.125284, 0.295591, -0.158442, -0.155488, -0.182761, 0.057619, -0.325526, -0.001366, 0.006518, -0.074187, 0.110548, -0.027625, -0.007541, -0.152152, 0.018311, -0.053125, 0.105738, 0.111299, 0.047436, 0.081495, 0.054045, -0.199282, 0.171429, 0.201846, -0.32858, 0.123557, 0.029066, 0.106768, -0.274859, -0.000996, -0.022137, 0.094891, -0.084227, -0.182601, 0.0289, -0.181566, -0.140692, -0.081382, -0.086125, 0.183809, 0.169756, 0.04028, -0.04177, 0.240062, -0.120903, -0.221598, -0.091602, -0.160575, 0.021913, -0.199509, 0.366493, 0.024649, -0.175421, 0.171528, -0.257931, -0.074393, -0.118796, -0.22681, -0.321996, 0.130317, 0.087377, -0.068851, 0.040275, -0.059979, -0.014855, 0.299369, 0.14902, -0.208745, 0.151932, 0.194744, -0.008935, -0.069195, 0.118005, -0.007484, -0.002348, 0.080754, 0.153261, -0.074521, 0.159324, -0.035892, 0.072301], [-0.354892, 0.040868, 0.034393, -0.070853, -0.109193, -0.00801, 0.035357, 0.17374, 0.084168, 0.020026, 0.006415, 0.294137, -0.195877, 0.038214, -0.009095, 0.162403, 0.073596, -0.069455, 0.418063, -0.046655, 0.232113, -0.045981, -0.083749, -0.03219, 0.013552, 0.280641, -0.311973, -0.013803, 0.121972, -0.35063, -0.027872, -0.000985, 0.17108, 0.070398, 0.207642, -0.00083, 0.019686, -0.017707, -0.44124, -0.093342, -0.007717, 0.134735, -0.127884, 0.087936, -0.105451, -0.066848, 0.051602, -0.104792, 0.287177, -0.213683, -0.052968, -0.222773, 0.113686, -0.42221, -0.025977, 0.012235, -0.047173, 0.047351, 0.009245, -0.043864, -0.148218, 0.058107, -0.052872, 0.175982, 0.03031, 0.066159, 0.252746, -0.02664, -0.198955, 0.093467, 0.136168, -0.26072, 0.074057, 0.043186, 0.049242, -0.323067, -0.10643, -0.005645, 0.142192, 0.075561, -0.164872, -0.079429, -0.224984, -0.124277, -0.115885, 0.036397, 0.249028, 0.047256, 0.054001, 0.056599, 0.312809, -0.153858, -0.225385, -0.120065, -0.072751, 0.083217, -0.117251, 0.202212, -0.10741, -0.122049, 0.148733, -0.187728, -0.021077, -0.187207, -0.251631, -0.216386, 0.187123, 0.085551, -0.14075, 0.125504, 0.067158, -0.01252, 0.159863, 0.161306, -0.232693, 0.198885, 0.214824, -0.055883, -0.113557, 0.023108, -0.013441, -0.019793, 0.106786, 0.102058, -0.14143, 0.138573, -0.01378, -0.000873], [-0.248831, 0.126429, 0.034789, 0.046466, -0.086461, -0.024063, 0.163953, 0.115618, 0.064082, -0.025759, 0.032204, 0.49276, -0.174368, 0.009972, -0.065944, 0.171799, -0.10019, -0.1242, 0.333724, -0.034504, 0.280796, 0.019354, -0.243446, 0.048308, -0.028916, 0.337453, -0.368964, 0.052648, 0.260538, -0.31284, 0.039304, 0.098992, 0.29564, 0.102041, 0.196202, -0.008461, 0.011087, -0.007749, -0.437463, 0.064605, 0.051774, 0.005197, -0.177411, 0.056926, -0.129257, -0.088372, -0.05765, -0.212411, 0.408021, -0.152763, -0.177912, -0.204267, -0.017412, -0.425065, -0.030155, -0.030952, -0.161224, 0.071025, 0.049634, -0.009333, -0.210079, -0.091993, -0.032833, 0.183782, -0.014226, -0.110169, 0.139176, -0.022342, -0.213959, 0.127263, 0.070204, -0.187654, 0.165571, -0.150619, 0.102741, -0.29482, -0.094083, -0.017929, 0.023443, 0.002879, -0.098709, 0.019647, -0.215934, -0.152675, -0.107283, -0.000775, 0.229997, 0.130215, 0.019715, 0.019233, 0.258172, -0.237355, -0.141614, -0.249753, -0.065336, 0.136046, -0.021114, 0.330472, -0.075768, -0.178784, 0.032228, -0.349256, -0.081881, -0.224561, -0.348357, -0.406758, 0.1384, 0.042332, -0.108255, 0.108328, 0.052735, -0.079084, 0.21539, 0.262147, -0.227941, 0.255356, 0.119945, -0.07419, -0.072506, 0.007201, 0.027533, -0.005707, 0.142499, 0.133475, -0.031275, 0.168377, -0.220204, 0.145981], [0.340765, -0.043052, -0.03155, 0.126614, -0.003552, -0.054793, -0.125869, -0.174906, -0.074939, -0.05866, 0.075139, -0.347433, 0.172568, -0.012356, 0.04456, -0.088695, 0.035482, 0.116764, -0.312417, -0.036772, -0.192573, -0.008853, 0.234813, 0.067107, 0.078999, -0.301556, 0.374794, 0.064742, -0.228212, 0.20583, -0.089867, -0.128851, -0.130089, -0.072141, -0.132149, -0.098064, 0.033523, 0.063018, 0.363946, 0.08081, -0.015385, -0.183982, 0.017098, -0.050122, 0.032226, 0.078999, 0.091524, 0.060327, -0.417421, 0.14394, 0.164052, 0.218301, -0.040041, 0.421271, 0.005804, 0.068545, 0.093909, -0.092419, 0.070699, 0.002451, 0.108625, 0.100081, 0.061428, -0.178365, -0.129892, 0.005896, -0.087499, -0.038058, 0.183342, -0.179903, -0.036433, 0.323665, -0.085147, -0.001811, -0.124173, 0.30013, -0.026562, -0.063725, -0.124672, -0.052117, 0.17138, -0.008507, 0.182495, 0.088042, 0.046604, 0.108134, -0.240691, -0.003497, 0.062091, -0.053207, -0.231499, 0.204828, 0.151111, 0.028792, 0.045614, 0.037593, 0.06405, -0.333596, 0.048687, 0.09774, -0.026143, 0.318095, 0.11303, 0.101439, 0.152361, 0.253281, -0.085047, -0.120576, 0.106631, -0.040353, -0.039107, 0.042745, -0.23915, -0.187962, 0.183006, -0.272438, -0.194882, -0.011304, 0.108937, -0.151773, -0.074918, 0.017032, -0.061851, -0.160223, 0.036053, -0.113148, 0.158606, -0.076789], [0.360261, -0.04872, -0.083049, 0.121946, 0.053343, 0.095398, -0.141595, -0.049024, 0.01309, -0.116075, 0.077691, -0.301739, 0.272744, 0.057981, 0.052647, -0.153796, -0.088159, 0.037295, -0.363425, -0.015702, -0.196475, 0.06225, 0.227486, 0.048832, -0.013598, -0.136517, 0.273211, 0.060144, -0.20384, 0.151374, -0.058636, -0.156265, -0.215339, -0.000265, -0.136911, 0.029008, 0.016559, 0.084329, 0.292773, 0.02432, 0.115836, -0.135777, 0.043736, -0.002679, 0.104127, 0.056593, -0.017058, 0.051145, -0.369178, 0.145536, 0.093211, 0.176618, 0.024463, 0.370393, 0.035792, 1.9e-05, 0.103504, -0.065552, 0.088778, -0.016508, 0.251835, 0.015923, 0.067944, -0.20339, -0.126193, -0.045467, -0.110622, 0.001757, 0.035918, -0.134494, -0.030954, 0.261293, -0.035788, 0.077939, -0.092273, 0.159556, 0.026602, -0.06549, -0.110859, -0.05421, 0.183741, -0.042374, 0.231351, 0.091682, 0.10896, 0.075835, -0.229286, -0.127996, 0.046941, -0.010811, -0.114644, 0.032062, 0.178183, 0.169635, 0.066004, -0.036024, 0.075486, -0.215957, -0.019918, 0.153717, -0.132972, 0.202247, 0.053531, 0.117901, 0.289926, 0.319824, -0.056245, -0.095152, 0.002155, -0.083824, -0.070788, -0.068163, -0.287511, -0.164174, 0.163138, -0.202507, -0.187969, -0.033275, 0.098024, -0.145, -0.067547, -0.054231, -0.123321, -0.137746, 0.098056, -0.126105, -0.004553, -0.12257], [0.363932, -0.133383, 0.008051, 0.060398, 0.119085, -0.058357, -0.18949, -0.069672, 0.016574, -0.095261, 0.097134, -0.379576, 0.260594, -0.051778, 0.09084, -0.207713, 0.035385, 0.018553, -0.449387, 0.020409, -0.275471, 0.029534, 0.117144, 0.06689, 0.048005, -0.191197, 0.345913, 0.017053, -0.266986, 0.282694, -0.086949, 0.013362, -0.224754, -0.033686, -0.220208, -0.103265, 0.06041, 0.01343, 0.470331, 0.082308, -0.030006, -0.038154, 0.148503, 0.051094, 0.035897, -0.065798, 0.054469, 0.170381, -0.3652, 0.254306, 0.058855, 0.205511, -0.102752, 0.391165, -0.028979, 0.116761, 0.027251, -0.046614, 0.127066, -0.005861, 0.252215, 0.058068, 0.030435, -0.178883, 0.026171, 0.05573, -0.181072, 0.004435, 0.10558, -0.206134, -0.102155, 0.205725, -0.048582, 0.00328, -0.126707, 0.138514, 0.008786, -0.03332, -0.0709, -0.049172, 0.127839, 0.036579, 0.178275, 0.145519, 0.132367, -0.034986, -0.219372, -0.053394, -0.055213, -0.053978, -0.326593, 0.209651, 0.270861, 0.151082, 0.075238, 0.022644, 0.146324, -0.340019, 0.113403, 0.110517, -0.054801, 0.265177, 0.134857, 0.137412, 0.214707, 0.397133, -0.083363, -0.099199, 0.063608, -0.120342, -0.029427, 0.010379, -0.262306, -0.193787, 0.218597, -0.278729, -0.271385, -0.019535, -0.003617, -0.113038, -0.087964, 0.00487, -0.082977, -0.122485, 0.065947, -0.151078, 0.115445, -0.073875], [0.355874, -0.071824, -0.033571, -0.004179, 0.098033, 0.016245, -0.073118, -0.135565, -0.071627, -0.084076, -0.037153, -0.37857, 0.298443, 0.055944, -0.035948, -0.146756, 0.005284, 0.032111, -0.409455, -0.056357, -0.21675, -0.004909, 0.16359, 0.116365, 0.033234, -0.163308, 0.264646, -0.009127, -0.228976, 0.297333, -0.097285, -0.057246, -0.261442, -0.068734, -0.117838, 0.040073, 0.039787, 0.081857, 0.40765, 0.039789, 0.079122, -0.077229, 0.059617, 0.028819, -0.00204, 0.046843, 0.005257, 0.155462, -0.380394, 0.219676, 0.033364, 0.29589, 0.018316, 0.36954, -0.012429, 0.043091, 0.103433, -0.043547, 0.085864, 0.069067, 0.157897, 0.09486, 0.008993, -0.192966, -0.041457, -0.06704, -0.201042, -0.11925, 0.061892, -0.135218, -0.174653, 0.292347, -0.144789, 0.090622, -0.050695, 0.209287, 0.001294, -0.079456, -0.020804, -0.04822, 0.187221, 0.002524, 0.201195, 0.092172, 0.11755, -0.033271, -0.270667, -0.165812, -0.090099, 0.076432, -0.146365, 0.115278, 0.1566, 0.133453, 0.038638, -0.0517, 0.121922, -0.220502, 0.015456, 0.194229, -0.016246, 0.249496, 0.042335, 0.090258, 0.190403, 0.385488, -0.205558, -0.084013, 0.141393, 0.008927, 0.032375, 0.029591, -0.271564, -0.112307, 0.189065, -0.248506, -0.118092, 0.043013, -0.011082, -0.002512, -0.090052, -0.009436, -0.044668, -0.213454, -0.003831, -0.099856, -0.000447, 0.024804], [0.328231, -0.123466, 0.019236, 0.002448, 0.045566, -0.013989, 0.005784, -0.083106, -0.003334, -0.051871, -0.034223, -0.437185, 0.144798, -0.015302, 0.003094, -0.082715, -0.046985, 0.129308, -0.300895, -0.015628, -0.105408, -0.02493, 0.175921, 0.020549, 0.056944, -0.184917, 0.361273, 0.046973, -0.15315, 0.197402, -0.098804, -0.047527, -0.168637, -0.068792, -0.154585, 0.009861, -0.067095, 0.097981, 0.351133, -0.044591, 0.079344, -0.177106, 0.04487, -0.089757, 0.079082, -0.007047, 0.010702, 0.083559, -0.313329, 0.233476, 0.011988, 0.135821, -0.105037, 0.382124, -0.048716, 0.032617, 0.046159, -0.074586, 0.135747, 0.0738, 0.236152, 0.016554, 0.039701, -0.116135, -0.069037, 0.070448, -0.209278, -0.102354, 0.102665, -0.063849, -0.080687, 0.229216, -0.165468, 0.098496, -0.140286, 0.158177, 0.097544, -0.03266, -0.021708, -0.051986, 0.193973, 0.070976, 0.218351, 0.096034, 0.108468, 0.019917, -0.252892, -0.012747, 0.053102, -0.078392, -0.173323, 0.192336, 0.248087, 0.018715, 0.108162, -0.033888, 0.098642, -0.292924, 0.05556, 0.184222, -0.15535, 0.277394, 0.037193, 0.078547, 0.181578, 0.342619, -0.134119, 0.044845, 0.113626, 0.012083, 0.053616, 0.052287, -0.226239, -0.123032, 0.206681, -0.162776, -0.132908, -0.087669, 0.018194, -0.147154, -0.030117, 0.054205, -0.082892, -0.08159, 0.018065, -0.186387, 0.163618, -0.083314], [0.31526, -0.149615, 0.082513, 0.028902, -0.023323, 0.060194, -0.03233, -0.185778, -0.050187, -0.033395, -0.03924, -0.269144, 0.168071, 0.071882, 0.071882, -0.016076, -0.016432, 0.073712, -0.358204, 0.104589, -0.143022, 0.06384, 0.085237, 0.152931, -0.009978, -0.164113, 0.221804, 0.044904, -0.114237, 0.183846, 0.032445, -0.123747, -0.183697, -0.067597, -0.167034, -0.102674, -0.074912, 0.070558, 0.368706, 0.022524, -0.024293, -0.069555, -0.002124, -0.060208, 0.043235, 0.041102, 0.067282, 0.043213, -0.28658, 0.235764, 0.148692, 0.182036, -0.004447, 0.327867, -0.002101, 0.078365, 0.124826, -0.014949, 0.023359, 0.102401, 0.145573, 0.022649, 0.101154, -0.182279, -0.097479, -0.084748, -0.086525, -0.071328, 0.139651, -0.21273, -0.034757, 0.236414, -0.123668, 0.004675, -0.103009, 0.196525, 0.055485, -0.036352, -0.013445, -0.006497, 0.115942, 0.061429, 0.215645, 0.138116, 0.069764, 0.121793, -0.182014, -0.010954, 0.008212, 0.013804, -0.259197, 0.064217, 0.228881, 0.075343, 0.128586, 0.019235, 0.141908, -0.315418, 0.043693, 0.222303, -0.075994, 0.2537, 0.015757, 0.114259, 0.207798, 0.246554, -0.074906, -0.105952, 0.060655, -0.038486, 0.045811, 0.01222, -0.218459, -0.198118, 0.238345, -0.119341, -0.153412, 0.015406, 0.063155, -0.120756, 0.031469, 0.044095, -0.147996, -0.089461, 0.143123, -0.088081, 0.148221, -0.143081], [-0.267088, 0.126152, 0.004993, 0.026304, -0.04217, -0.038846, 0.066072, 0.160388, 0.052223, 0.007866, -0.103553, 0.350047, -0.30139, -0.013674, 0.043249, 0.031563, 0.024009, -0.133144, 0.362265, -0.060935, 0.270201, -0.091906, -0.178553, -0.135754, -0.020374, 0.224579, -0.324473, 0.072286, 0.176654, -0.341992, 0.107886, 0.01915, 0.250612, 0.105573, 0.10431, 0.041122, -0.065836, -0.017386, -0.482444, -0.066142, -0.061208, 0.167905, -0.139439, -0.014586, 0.000226, 0.010651, -0.049693, -0.099978, 0.332554, -0.170654, -0.088951, -0.188777, 0.000591, -0.327497, 0.080849, -0.052407, -0.139402, -0.002286, -0.072543, -0.045406, -0.18894, -0.071931, -0.125264, 0.211464, 0.042399, -0.01737, 0.236727, 0.053981, -0.075942, 0.184786, 0.089174, -0.229227, 0.086896, 0.031153, 0.098902, -0.262058, -0.068627, 0.013345, 0.083759, -0.01563, -0.21831, -0.032595, -0.171218, -0.132485, -0.0255, 0.021865, 0.238773, 0.105611, 0.014927, -0.075406, 0.208674, -0.126183, -0.209757, -0.088712, -0.142291, -0.008669, -0.047007, 0.220402, 0.033966, -0.060542, 0.043872, -0.258296, -0.098607, -0.167454, -0.204648, -0.363579, 0.128342, -0.036116, -0.061324, 0.066348, -0.078502, -0.09816, 0.213851, 0.139558, -0.174112, 0.249593, 0.075794, 0.101105, -0.049045, 0.108154, -0.024281, -0.010614, 0.060272, 0.029395, -0.032522, 0.189135, -0.026761, 0.090488], [-0.265656, -0.014029, -0.015557, -0.086739, 0.010014, -0.002871, 0.004226, 0.09413, -0.055982, 0.120463, -0.028959, 0.259886, -0.293429, -0.003921, -0.040197, 0.172023, 0.075127, -0.146368, 0.349492, 0.052189, 0.123111, 0.024831, -0.156257, -0.173422, -0.053903, 0.270798, -0.321151, -0.079838, 0.206088, -0.278923, 0.044374, 0.024459, 0.205839, 0.066453, 0.046237, 0.089402, -0.01307, -0.123997, -0.410717, 0.032347, 0.030658, 0.125795, -0.137509, -0.05344, -0.028968, 0.017396, 0.059723, -0.139411, 0.405402, -0.218513, -0.081584, -0.187436, -0.02921, -0.306693, -0.073479, -0.013608, -0.005373, 0.004007, -0.100312, 0.063746, -0.284685, -0.060859, -0.019568, 0.131458, 0.031378, 0.033791, 0.229644, 0.011479, -0.159938, 0.165567, 0.110555, -0.329683, 0.122515, -0.108618, 0.107719, -0.23163, 0.037719, 0.011827, -0.02305, 0.066307, -0.104427, -0.061394, -0.210396, -0.053259, -0.089676, -0.095142, 0.261781, 0.152649, 0.091904, -0.022405, 0.252772, -0.17535, -0.123842, -0.189096, -0.04902, 0.099964, -0.072378, 0.365997, -0.097363, -0.204847, 0.106002, -0.282414, -0.00697, -0.095885, -0.294106, -0.362049, 0.073966, 0.085195, 0.004566, 0.053557, 0.004271, -0.055078, 0.299264, 0.266106, 